-0.01360011133176528,0.036388857153874736,-0.03514606722868861,0.009551203185782653,0.06389820113139512,0.054822096095840336,-0.03565353430330183,0.08738719761938005,0.03827688403406222,0.04976008357983735,0.035025669452566535,-0.07917606982698612,-0.036593456333900896,0.019770134438093015,-0.011701973560975045,-0.0010247312975126767,-0.03095508961433778,0.02596017567766358,2.9248150340778245E-4,0.031595669616755716,-0.04189399014022821,-0.10849949730056596,-0.03776368233238356,0.012461114411828206,0.034917264545180585,0.003439036955448067,0.04344564378715439,-0.0012995988266498847,0.02151372219103946,-0.022448827158689483,0.0014707285862594686,0.011672737901914624,-0.06851344843572539,-0.10580995864292174,-0.026071927377134697,0.015945284230189743,-0.00877237241922783,-0.03567679043847195,0.04976340818220903,-0.0396633100521806,0.009389233840361954,-0.08641680184837411,-0.046196743179283316,-0.0608406386452883,-0.031287543350899095,-0.021847534483751888,0.0012807619231206034,-0.04874212362650476,0.0593034926765853,-0.03978125748615738,0.010347844764666624,-0.0267771844586749,-0.06124277143499386,0.013689976802726387,-0.012265516646949236,-0.0015298932835523214,-0.08331300380985046,0.07017674615613023,0.028608485107023754,0.07218841546713677,0.07334282885013067,0.004047342904905476,-0.034479988700784225,0.02541597884215758,0.046656573050618766,0.05473210557326977,-0.126799761618087,0.03633699798937399,0.0771934573525979,-0.05849829942302427,-0.07198046995977243,-0.024946149038236963,-0.03010775803163763,0.008953643264746569,-0.0037184344781536157,-0.056365068650868745,-5.2156487118638876E-5,0.09473555955065471,-0.01006847120224641,0.10099882768477308,-0.012000120276827205,-0.030906724038922397,0.0964635495818806,0.006844883084359571,0.005031899440162288,-0.09370668343858576,0.021692741714850063,0.028844876167794666,-0.0023744908354505177,0.03565176057227537,-0.0322075553831284,-0.07685518006121753,-0.027327671582062014,0.029737098358778233,0.03247460543939833,0.036093342926008104,0.07174157318856682,0.05742044852988433,0.030484903735395547,-0.06617032230411657,-0.0011963359351565561,0.016299791006280043,-0.008381732765638429,-0.06561838064943418,-0.02793218454563198,0.10395027786154216,-0.003641584696165213,0.014390224744450045,-0.029314428937628784,0.008437502314156539,0.15446088400657065,0.02674303759261818,-0.006031208956664202,-0.005172397001055543,0.027531015778731877,0.044364020728378195,0.019140690927701803,-0.06746497572343292,0.0471438424807903,-0.021967964620384854,0.05195585743680641,0.01556039300576238,-0.015617195815237687,0.03207993992244861,0.049148893379773254,0.09063327025740692,-0.04455183166789457,-0.08690848431041046,
0.050525723157805597,-0.048840116441815594,0.03843600339389969,0.020133704650955542,0.05790641304814155,0.054030060789455825,-0.014845463610583082,-0.0325756850689104,-0.0820410173603356,-0.028845738382506106,0.09018915429548788,-0.08370259056644754,-0.01339337418437473,0.01323962699151374,0.02396598799174504,0.018906771127915445,0.04057771360666887,-0.003245728230187518,-0.019573389547539902,-0.13341751686180447,-0.037288952224693875,0.06442976853329097,0.007056011407715797,-0.05865666761017729,0.024105795968574817,0.026491845916482067,-0.023068271974397078,0.04672927781832019,-0.040807462934538796,0.04064958713632927,-0.06667312281166447,-0.017572450335459174,-0.054157122571953556,-0.040610140820873844,0.07910790802129325,-0.07416721513083488,0.08006872267917861,0.06976501704836979,-0.023999262404108688,0.024970468191182718,-0.06674284959538246,-0.06318381727674438,0.06522221645123347,0.04337272461859413,0.041715955146586464,-0.01052200775075075,-0.0015320411242314685,-0.005943983406246737,-0.03678243569797805,0.03792304351673154,0.033622017228360855,-0.0784865480401823,-0.05488687180965199,-0.028084188070701288,0.046640933139808105,-0.03064147394042105,-0.005018112261719769,-0.032682027719223405,0.0419643128979359,0.06005684254048859,-0.05248098541957224,0.06123650545644249,-0.016687966986699682,0.0040209878125078416,-0.03447929443126998,-0.012917945393487394,0.21332769818718292,-0.05127046661294271,0.02133755137318241,0.005151915210329964,0.006210407794010684,-0.018388858605449514,-0.03627385211520511,0.06806825887904412,-0.11224590485022803,-0.042379907522232224,0.07817157671482923,-0.07022229097174798,-0.02501275349374272,0.07018175946375797,-0.021632939056012882,0.01744589886625453,-0.006133291852124169,0.02489997358001425,0.044111963874385124,-0.049882907492872004,0.045914996163641725,0.06889991394336621,-0.008958846657083215,0.025906118475136304,-0.09722761991187166,0.01592454536107854,0.030293096260317995,-0.060240953228744,-0.008799163449164621,-0.07763316561598874,-0.024314353810264144,0.05818401643728972,-0.02204449761701193,0.0016537785907896213,0.00670328824255019,-0.03449865820206465,-0.07805641093571009,0.009719577441460184,0.10342267144456602,-0.0449722909264321,0.05440534586393442,0.016225030941250395,-0.002504754320258126,-0.03506395606863011,0.009625479240451096,0.025349505809734565,-0.0033117620871337197,0.045667000120905576,-0.014463523504463597,-0.026936304597250563,-0.03127659875020533,0.05910765673361748,0.006916560951339282,-0.0432344495695032,0.08646909259134272,-0.019125797661443563,0.02384951319377064,0.016330777186654693,0.009753277362140999,0.05702722584318113,-0.10145763384532554,-0.026031164435822568,
-0.03305348394338044,-0.018850515229288402,0.048740731765051934,0.029164199545963478,0.057841559923752665,-0.06978676133767146,0.014468683967692388,0.1191495296029595,-0.02844128109656734,-0.006739762850789294,-0.09725577004608603,-0.04349025410824782,0.10174209944454467,-0.030001210471264802,-7.201281707417394E-4,0.028463392692145713,-0.0019950680355144356,0.004541136534655178,0.12595774144118754,0.11872838900733931,-0.02089077730834712,-0.004353095544166327,0.042233468802736346,-0.0230614736035457,0.04642374466561291,-0.002145697155324435,-0.03960378683451651,-0.0015381835735712541,0.053261249969999716,-0.09155446137674023,0.036830563752040364,0.05472388831960931,-0.0813449279485436,-0.06279275022917234,-0.08147419970176034,0.019960377189580752,0.019783359418544578,0.0191996196179907,-0.03261557527744714,-0.0029774992983214277,-0.01473942492820745,-0.05621378774322451,0.06021299026421592,0.039905452069571835,0.02019346310019947,-0.021109514487396702,0.08706161982822382,-0.08064446338520023,-0.04345680391851603,0.04723304974662006,-0.09098556985964336,0.08842371280399008,0.029364526459685698,-0.040323985958672454,0.004459418776123323,-0.013564021645864153,0.03985850431861299,0.04792798855519406,0.014799622150822518,-0.06566348382757893,-0.03380893876920521,-0.04455819360410705,-0.08383138804966489,-0.061855336888669156,-0.0036923070191073287,0.01560227584627428,-0.018167610299988226,0.0653543128323316,-0.060558077202545725,-0.027533575582340854,0.06231301797677059,-0.002838511671782589,0.018577225458383452,0.013241628904311523,0.015222816396055848,0.01794935479993041,0.05478561664926031,-0.07627078474095242,0.015512396895285819,-0.07016783686336069,0.03582265237914059,-0.006458675849732862,0.017887820565988134,0.03559412262123917,-0.07127880792506537,0.03109871411590533,0.008373341968550661,-0.04758095542340876,-0.021181654008663606,-0.035919914565943754,-0.004222987559678835,-0.03655706975429354,0.055357781013586196,0.03879909456987507,-0.06015975814380791,-0.08762488767134324,0.015373723133930381,-0.06543626053385677,0.024663365067710455,-0.026401698342078384,0.0249684253576678,0.06601865090645263,0.024203501556310278,-0.06414970447057826,-0.009777933818852908,-0.06252637836079242,6.457036996766658E-5,-0.0481693301725861,0.08572103257935954,0.03588380994808147,-0.03538390126144873,-0.13949985013779773,0.11863970752616573,-0.10055959271493448,0.05763223447431749,0.03560540833090074,-0.007400649305490798,-0.05088645697911216,-0.036086421837086845,-0.07253692237472734,-0.043909866539255715,-0.05119452249860689,0.005706674695115235,-0.030357018283222393,-0.07115995510154549,0.04535177589235334,-0.04236237750296961,-0.03762121330378273,
-0.0413266056692899,0.035037230221584614,0.0217565360727555,0.06678028231816732,-0.007056713312979582,-0.02900725154901315,-0.11639360057776674,-0.033799655309191545,-0.04821448163133482,-0.011975040593950092,-0.06190612238545257,0.05811311030981984,-0.06598988684957806,0.0026564033823175603,0.020569675411507962,0.08109491959866054,-0.023908936225914196,4.994390383515491E-4,0.046206279094221946,-0.038054472734601816,-0.023635473460635034,0.00536140334629108,-0.026393347719358574,0.0273041979361511,-0.04506047250995128,-0.00739267451947875,0.10682184140564742,0.012020972341804086,0.0174430642700758,-0.029292916142672903,-0.04464248817799762,-0.007605552607748454,7.33718794126454E-4,0.009712410239490946,-0.003961492782491769,-0.056682280384768274,-0.007915119001903819,0.024362658438938742,-0.0536007495113955,0.021209704752856856,0.03349136923105156,0.05179670063268597,-0.009093562561730809,-0.07838051733401713,0.005032802990838752,0.06478324641916522,0.08862342663401224,-0.06603481326056211,0.0569434126477342,0.045975154069384426,0.01723655958293,-0.006464912161951686,0.028564192612482567,-0.01882153074114535,-0.07309656725829622,-6.643092053309918E-4,-0.01917001542020174,-0.002512848746473451,-0.039421303700572896,-0.055105519083148646,0.03641143057280262,-0.060731411559681404,-0.04005439732697749,-0.06925309717547216,0.011827959888238038,0.06382416228622625,-0.024856480340257402,-0.019607450526038794,0.04951787071985476,-0.014875183442948546,-0.06348766007820837,-0.03109983160148523,0.07068852654527495,0.015199018273790336,0.011783837528278822,0.06426297998827578,-0.04766639024011454,0.026188976245681114,0.028448946120357976,0.00961020760742861,0.02312029582879661,0.029678515808313228,0.01707024135060971,-0.020297061398863357,-0.03302353406827072,0.049401447031450996,0.08454240659000979,-0.06785647215856441,0.04026671624960744,-0.006267169249049973,-0.01426963662940757,0.024388156724090025,-0.049271292401261824,0.10081363667881896,-0.008601308036099214,-0.04589670942438118,0.028040375610271864,0.006077245628789546,-0.022659196317398368,-0.06263376315827826,0.052724061540340365,-0.06170733306264539,0.017906532230491243,-0.06723277378510437,-0.05096443237545259,0.0477661401914454,-0.03525922312896731,-0.0758503297000741,0.0679958696332905,0.009880031634891635,0.05073854239546739,-0.047411472740304446,-0.06323435307367811,0.042703533722239076,0.03169625056954028,-0.0625674949121142,0.03827352022052058,-0.05093647131072637,0.024939196526603716,0.11097884871526505,0.023190996085452862,0.06620531347683725,0.04152991348119892,-0.04614795685782742,0.04688918992348032,-3.849059876026058E-4,-0.07401968966433085,0.06037202953042892,
-0.07179781544787449,0.02483222142285355,0.0578756174210062,-0.011092994093321193,-0.06549270017995854,-0.01369061909477487,0.09260735654836344,0.05642589241032653,0.016957267877538807,0.028898210223343865,-0.09028593844684173,0.010211246313532839,0.03210582468198435,-0.01684493477673762,-0.09726108818017398,0.07903083635400515,0.06508744407206908,0.08066439842598182,-0.053932103275558356,0.036985165976383426,-0.006130202984983305,-0.07010718097103862,-0.007707837356407917,0.03511079705490984,-0.024612097858452333,-0.07793572716323038,0.04947845935169706,0.060730631629292035,-0.016223275542521644,0.01870284093374774,-0.014620174653732512,-0.017746549618121388,0.01633538365935853,-0.005331016604478554,0.011871060942335268,-0.038194278208681764,-0.00786342794729755,0.03297994237467413,-0.02012133072014257,-0.042945457116847774,0.016086180683581856,0.05233569497691375,0.03789595355104827,-0.0849352660738056,-0.0489205261244874,0.07898264259379398,0.035418388793916074,-0.06955213042621049,0.09997082373113586,-0.00804210577163683,0.02835762504152727,-0.04531034999950581,-4.74823725267109E-4,-0.03569542727286445,0.04499241165961819,0.015575789798772985,0.06120110464328981,-0.0511424219989122,-0.053065244477572875,0.07836627889606725,-0.04641845075672633,0.06387870442050625,0.033221685020542846,0.09037558580496508,-0.00461159763762545,0.06020695300980883,0.026392279123081792,0.0334525785893904,-0.038180958322867935,0.026579708569466044,0.021734795866130394,-0.025830560507730124,0.04220180680423929,-0.03234083517314254,-0.036800075476078185,-0.002912073354134666,0.012469773530609008,0.04913771748848445,0.0703774709144296,-0.05672566500294538,0.032575060996812004,0.0016538857347462674,-0.024966994403980456,0.025678305044080148,0.011167173861426054,-0.02761036540292799,-0.012643733455599396,-0.09703360063787903,-0.006150282384523902,0.004610551923511329,-0.05868846919213694,-0.03859308083443408,-0.03171442984623701,-0.07821221915427971,0.0363691099430097,0.02846546704486958,-0.12283137688026534,0.05858872934130001,-0.030885693325211572,-0.08052597962987501,0.03917791112559033,0.012026131178769847,-0.016973781774802868,0.03236992341352798,0.04179874172186273,-0.03246952557463288,-0.033280753311875196,0.013291688394270995,0.04492727005893825,-0.01347179555752558,-0.05399280644977686,0.08709412083553639,0.015957000657078294,-0.07736919871186743,0.018890829114466164,0.07172876927567295,-0.031769176278825056,-0.01561888643147836,-0.027231537214704667,-0.026643600322651756,-0.1104829395551535,0.014426252589344058,0.0025689970241191866,-0.03837373198584882,0.06741879035714934,-0.10310028387295214,0.0448954389341156,0.03398488913712876,
0.025477115499279543,0.020312455083843155,0.07742460563530744,-0.018494583404085878,-0.10789127342742802,-0.013292012687210628,-0.002060393849005022,0.0029664350577310477,-0.0631289048251802,-0.06788326465137066,0.02561888421192343,-0.028460888888772226,0.025837634282979513,0.0068942613463603,-0.04116896774952833,0.017055102643558192,0.031189533128115843,0.00638154553982038,0.01362937736611551,-0.08783220432944422,0.03335099116258005,0.004923634653761805,0.06179801488830369,0.031017993437704727,0.04541862329811031,-0.0503939095613781,0.012437470718514584,-0.05770500035221581,0.010695559757912523,0.0038976879488366537,-0.032168785905933896,-0.008328355192421755,-0.008339225797140878,-0.09145149459726665,-0.025358933226309933,0.14634203162944,-0.002549313167364337,-0.056311129149906505,-0.0800025524359428,0.018412018410737006,-0.02122603802117641,-0.004036759321436485,0.07713301534400985,0.03360011824299616,0.011691839105542437,-0.040384777225076246,0.009124442391288547,-0.06830870956487443,-0.02151242340129305,-0.012264849105175661,0.06428280828735745,0.001613033814274818,-0.002866514783431334,-0.12101579108556447,0.01502386742042918,-0.029787450416671274,0.04545498476417216,-0.03407798133059186,0.0633634830052227,-0.020016262481713065,-0.02419419686056979,0.06428883770232999,-0.10438956820341648,-0.022120538406300027,-0.10481815716225958,0.11906310506401466,-0.002152639695223694,0.056691020719475266,-0.08435127354415543,0.06616947143967646,0.09427147041979599,0.043479248878921954,-0.06081921410104492,-0.02326545316635721,0.010125978850583103,0.09039325369163713,0.06547800289688381,0.04086942351794425,-5.415110437051953E-4,-0.02011873283302029,0.07642150006023551,0.07977597456518848,0.019115801021773363,-0.02423702005338446,-0.03577528442828158,0.02137612304817129,-0.057983826045450285,-0.04678437509547068,9.596288116350037E-4,-0.05011998497868411,-0.03535678938844399,0.028413450414039167,-0.07399723208235857,-0.048129670407109304,0.020762072069719195,-0.01926037239393752,-0.050082789814886945,-0.1211575316672048,0.016323281982464508,0.013309771646802993,0.05480855713027129,-0.05974103905995656,0.028401194713788228,-0.026825856412880402,-0.013944870790311835,0.012084484917409596,-0.02699745089598903,0.00693672786592666,-0.05830005201081885,0.021010026850754787,-0.0038476295180078822,0.006691160570346472,0.015878576497909573,-0.058114850792587915,0.06083523272420021,0.021516396783818587,0.029851199902788506,0.012438551748655696,-0.04336767250645723,0.04004005425874421,-0.029774894717387118,-0.043369992776373906,-0.08229927621380649,0.051980928747150226,-0.0473940165944001,0.06211533467849587,-0.054200982668194925,0.030246172050913785,
0.0844250556308309,0.007252698624820919,0.037047900096532,0.08537868049847487,-0.019419537725474792,0.05874999009992365,-0.09455928058332108,0.03263877479979201,0.07020484906947205,-0.020528400752949538,-0.07372608118955301,-0.013216350383381687,-0.08216517335039011,0.0641161558417117,-0.016393278306628137,0.02313179309331302,-0.03615218816173295,-0.053757450138026866,0.07220927423957713,-0.02103282174862049,0.04062068227359318,-0.07585903909210803,0.06799305591636633,0.0243960246014873,0.0366113297004012,0.007448708803108585,0.0029076282407937974,-0.08429073017687952,0.048022204644253656,-0.0025405918536786525,-0.05098751473952365,0.050351641567553874,-0.02527929106212595,-0.016156110206535967,-0.03357374736385171,0.02225507083312922,-0.0070923542591712005,-0.05532260706185043,0.0568462266455507,0.05704339506567233,-0.02242278643749003,-0.028813638484415368,-0.07941802051909941,-0.02925600662496764,0.02451180056548108,0.04188505591876627,-0.03369314436095016,0.0013792939507853692,-0.08172130443402666,0.018752982342250674,-0.03581972207564028,-0.03660474821124212,0.01184439695436561,0.10667854854457877,-0.015420658600285068,-0.02458007447363149,-0.05885995823692023,-0.0892495000894335,-0.029395971608957183,-0.08122000041129818,0.04412346707344944,0.028585715918697435,0.013204842988979327,0.04395821848026203,0.019691745698897537,0.0015464083063154953,7.016734701837419E-4,0.06493459856598789,-0.057330587016037174,-0.06902455555396124,0.02336025638555693,-0.0028213951557268255,0.05122239523311348,0.09933871227216351,-0.12921987291768616,0.10940799166431288,-0.0038104319338621347,0.005624614574402912,-0.04534994279846277,0.043094958148145596,0.023200341316539027,-0.05479491153340619,-0.010005940952821934,-0.010338020746146068,-0.024852847725802187,0.12621236525116855,7.078051238583015E-5,-0.0027477204849694014,-0.01617953964248114,-0.06939082383759257,0.028437053941002863,-0.0026345682973539074,-0.011977332545017021,-0.01850362097366307,0.05827912457633258,-0.056472402327029575,0.02451149782769225,-0.006396192530742893,-0.03608691303369064,-0.046722708577855133,-0.05987291190607344,0.0016912574295294691,-0.011614547799533435,0.04767181768137363,0.02853365660929208,0.018338694208762465,-0.017598657640205722,-0.011993816389177438,0.054565599015306256,-0.10057435558654765,-0.08560957331426633,-0.051633368499789056,-0.002840284711393751,0.03426441178419413,-0.09749001642754608,-0.0639070843680134,-0.009716138231841864,-0.06283274509783819,-0.02214141566578573,-0.01818181211326243,0.012733133072500964,0.046194482466000296,0.06583761108686907,0.12661798297859642,-0.005174177327376357,-0.006729308351142322,-0.04066582319240603,0.03125506299242256,
-0.058505409324659155,0.09825892245597098,0.05413383415303966,0.08349413249166232,-0.02467862936078744,0.06943662026386047,-0.018240467974526,0.062072071615458684,0.017701176036024856,0.03687614116464508,0.03757970061796884,0.020293512521772646,-0.05764924967154274,-0.04753634778892645,0.03207222301765252,0.07286262346094395,0.025949930852925712,-0.001060501724117771,-0.0027581439893997555,-0.04146323920599776,7.524862457140513E-4,0.06010632158340328,-0.02756395712851244,0.08913240323876132,0.036743161887304664,-0.024067458309780687,-0.10305401212506356,-0.007017444466786821,-0.05706953683870513,-0.14124814073584488,-0.07774361335920062,0.028372908900703153,0.021070866863984156,-0.03972819785906245,-0.0457108444592004,-0.07308986839006625,-0.033577379388460546,-0.01644340407475883,-0.03579087177366321,-0.03042900668779531,7.083815627047101E-4,0.003372872299644734,-0.0050211166638495985,0.04540808030816956,-0.04292168474963753,-0.010239036547212508,0.055645103159525644,0.04182266278640547,-0.008899651479717245,0.053238497744612805,0.060382458411157074,0.028488743221070253,0.010049274370818116,0.01899860691043817,-0.008716022052211033,0.03541233937192257,0.03535680936571159,0.07623398635323064,-0.004441849256349553,0.026963207199920042,0.006333128756400947,0.014828351875752986,0.02899992093522128,-0.006024946735434778,0.0018601022662365525,0.03635684065683142,-0.02165895334544407,0.012515736137941116,-0.03506348894436823,0.03414080776106681,-0.010254843596932309,-0.05866404017186794,0.017983718064728645,-0.06728805767179058,0.06776912879917839,0.044529042457796104,0.031882111801698074,0.0412525348002264,0.0475011161502186,0.05104648580952392,0.062230807830212564,0.020935251522683336,0.008279927362072658,0.04426995759079435,-0.03602755423106517,0.009018441378299779,-0.016644886793666318,-0.055799864589545826,0.08627089032253876,-0.013366998832613159,-0.05215500457523308,-0.006478979080496564,-0.0018052343497274817,0.0679635816241453,0.04781534837452657,-0.021763462691132704,0.017362772023675508,-0.008206162442327308,-0.0676351585944648,0.03649912112333151,-0.01458779291742973,0.006088648606986597,0.02404245679280398,0.08269724458864873,0.0806361583053008,-0.007967245765574204,-0.0810159554058068,0.008418869878614656,-0.03681847640381164,-0.10820717411167231,-0.034082004312770316,-0.0032531465705999785,-0.031790393656384426,-0.006711119853007815,-0.025606914496110036,0.04698243676890302,0.0019526595974004035,-0.02759959612873955,0.07930434229733774,-0.06706052465948903,-0.1118704310184525,0.024310441353988726,0.018880719760900708,-0.02092449403104315,0.057602485701538364,-0.09480443839583708,-0.01123826713199158,0.05801435981169787,
0.02275968441246062,-0.05585272903869078,-0.06360704956964951,0.06225641936368564,-0.056919316385493836,-0.003422057536908097,0.024165139693383783,0.008033560520366115,0.008319435845648744,-0.0064770908315388695,-0.06631287932519712,-0.017184670364114776,-0.02366709917308479,0.01128897652387205,0.03764627274384922,0.0043797036093145975,-0.01731698532760168,0.048381053666399776,-0.001862503424458321,-0.022084537708188252,0.014291727167512378,-0.03671918904647206,0.021776292566008035,0.0029837282664017914,-0.02004929702562404,0.02609251564541719,-0.05101108847240361,-0.027463854253535366,0.11935650038762904,0.011782182018581566,0.05146011794456158,-0.06346548369210842,0.037460522055100386,-0.052943682552908114,-0.015814808964402693,0.005334109109491874,8.326677808310998E-4,0.03744652170025076,0.03041922004375594,-0.018111620231260082,-0.05203747490408792,-0.04382194982764606,0.029937876619316118,-0.04227968102891925,-0.048632077407606215,-0.027069679156476758,-0.05503078948540825,-0.02513740186746486,-0.0774287762042056,0.07946932016403141,-0.08261881815810829,0.006445353495031206,-0.0820986613508351,-0.027761840760434593,-0.03200743522853055,-0.05964016831861686,-0.050226814083871474,-0.0039664160961748116,0.02658457745915188,0.05256060535652135,0.012471759226468294,-0.003424252946315159,0.0661203839744575,0.01454229115558458,0.04966059079908482,-0.0124535887811829,-0.013510925072928202,0.02728227114472766,0.01939548877015547,0.03716772630689649,-0.05702268558842516,-0.042756982650124786,-2.0410154866446398E-5,-0.07210526832105148,0.10981188874107964,0.036833947522084735,0.04996023729503569,-0.015734986258102723,0.02560316732436559,-0.052501588201686794,0.03287807326092615,0.022226051714869664,0.0032552590862675265,0.062352436372245856,-0.07497539329012315,0.054044487850788615,-0.019450107396478105,-0.03848796066985613,0.07953128670140493,0.03788452470780101,0.029988522118825807,-0.10496051160817409,0.005900321984145848,-0.011123896186073727,-0.046696366970743974,-0.06775246490104866,0.0807979731651941,0.0028522320481494555,0.11979478319748511,-0.06954227259155875,0.03814707138281836,0.0429764879673637,-7.813164996465007E-4,-0.007016075400309099,-0.1153348927525741,0.044866035204454036,0.022358926475835917,-0.019246606778196923,0.010718351017859225,-0.07636492131220185,0.04317468914683189,-0.03207845320950619,0.0455226950721652,7.136704504194037E-4,0.011751485920887542,-0.026818359840199105,-0.015331396455245777,0.06138072781272857,0.05588980943229957,0.0014772433359134616,0.03296715765909088,0.03377369819577328,-0.06501898058137509,-0.03251952866242878,-0.03124320173263159,-0.028509073051160884,-0.01871753618694375,0.009156198503510142,
-0.018378007730238715,0.023253236907729707,-0.041054397729735556,-0.003190613818572924,0.02363672248258508,-0.008685059854445837,-0.005591861702464714,-0.022373260053945108,0.013217961450153493,0.08583251905830508,-0.0265346725098069,0.07250742910243266,-0.0017937408243940264,-0.021621642066773854,-0.030530354326675963,-0.05170218213425709,-0.04467258909878671,0.008158843504132622,0.017271594285679984,-0.026846356721003245,0.010886660703191865,-0.15582385004275756,0.02964891839653505,0.03264598134462175,0.05058228863558674,-0.0854654399185526,-0.02929400067927186,0.02474889483555298,-0.07382784334713488,-0.05279137790204309,-0.0513621794631748,0.0036874101304008853,-0.02789718856778114,0.07704430729571696,-0.05324406372379106,0.008715291515741616,0.09139021298418565,0.04746477696023313,-0.025315529631264433,-0.004719745234177901,0.03678481630298106,-0.06910856071985878,0.009664207237967501,-0.05137384068692305,0.007033517790248196,0.010267405293894595,0.005943931735646245,0.0632355129193177,-0.021591032319621655,0.029981475093488138,0.02304587659685522,0.029573850009275617,0.025877518837216854,0.044879518831400025,0.02414591583393741,-0.01664190915203279,0.0013790149744599958,-0.0016794809166781049,-0.05252888044917273,-0.09993854789532754,0.033581196706986956,-0.04867120937178948,0.037596997347011864,0.0015639689394637585,-0.06925508052834589,-0.0493422621942845,-0.01485739330851085,-7.784468140963436E-4,-0.061326187677623704,0.06674321011381272,0.083392402021218,-0.13665402044638267,0.02587841325446938,-0.027088901445843718,0.0826997972402139,-0.04025272283641862,0.06657927644240011,-0.030190324289127102,0.029498809466550858,0.010215147601121187,0.01236058418725896,-0.06778061321655357,-0.022887626898217807,-0.019050277609096486,-0.06285428741048954,-0.004966572884595037,0.06775472407710423,0.02563565801631609,-0.004213552352107263,0.062449621317609075,-0.1366259350489953,-0.14254551814592506,0.019749998556130542,-0.025797553558234848,-0.10212702339405161,-0.014676388826513245,-0.03468290168459966,0.015974130805320435,-0.021360134372106255,0.03359467541494315,-0.01864404575324957,-0.051635495354368954,-0.02488868200304252,-0.003165471304435416,0.046943540789533715,0.08654037336702908,0.024670219032126864,0.03950203271801307,0.06512964377867703,-0.06306639958988941,0.022357782940881733,-0.0359036780261898,-0.004166840316187497,-0.083720421911405,0.050523681806006575,0.04667053990196108,-0.001889368916481472,-0.006398263242786255,-0.013100998219084942,7.946339795772962E-4,-0.007614098156405066,-0.08275960336757639,0.03697891252039484,0.004407285067185409,-0.01641276935075293,-0.05147594372507472,0.012376634078342745,-0.04516956640166346,
0.04394676371083284,0.01626940423004922,-0.0229706007595364,0.08491993961469325,-0.03501799385780648,0.0021884323260191875,-0.00825452001920384,0.13220316953586594,0.054424480777545095,0.01461909133315293,-0.054092151460931874,0.016107482435310346,0.1232095574173256,-0.014146553083876296,-0.04049046431221234,-0.026442176446774213,0.02009946647088832,0.01685845172143155,-0.08042936721244019,0.04133610188455564,-0.017332353004218762,0.04133595044806605,0.0597560292267719,-0.007384857216697627,-0.06959393252929606,0.0675579402687643,-0.0301414099514557,-0.09584774149634225,-0.005923591176032858,0.009521337223492472,-0.021646194446786834,-0.05531475247675721,4.4887179362289873E-4,0.027638002345049702,0.004914900444557781,-0.024396653323810764,-0.048725170231841766,-0.06874427788773932,-0.01198483885068827,-0.014019854084134179,-0.02570043876918368,-0.07315326717945446,0.027618522984752564,0.023180236029216077,0.0773530700209199,0.04400157359520981,0.022067438854018046,0.050019688291412484,0.01901348725129428,0.014268995698143386,0.05126922318791195,-0.0254564275958849,-0.004477383001711303,0.0791567530199054,0.06450488171191734,0.02894921095048505,0.05032139012671219,-0.09284971988899254,0.04152016933534953,0.003408653987780054,0.019152333686358262,0.04338153808864751,0.06221468293952984,-0.058518853031330455,0.047218075155821604,-0.006968248276845137,-0.09750392031746151,-0.07520288711691665,-0.04539026193771507,-0.00619642162137158,-0.03706125609412732,0.016821665533343116,0.05306630823652539,-0.004039845651931723,0.06435115950550528,0.006566081926375181,-0.02883102269681829,-0.012569843784305094,0.027343515875156262,-0.07865460148231412,0.03736146941525817,-0.04330124255986129,-0.0029916445971352756,-0.015324643715325256,0.02904092230098146,0.03126128515109186,-0.007353298106036171,0.014139863385804247,0.0038220928830720543,-0.021083307332906295,-0.04031807634573716,-0.0512778908293669,-0.011617690201914886,-0.03134541000893206,-0.014954235371651498,0.06592851636142118,0.08530936744984625,0.03836365177634238,-0.1266283863589885,0.026416981145852614,0.08580540877089364,-0.060209258909850766,0.06304947929398118,-0.038384305772442895,-0.0907377923966615,-0.009097461968542827,0.07288185870531726,-0.06350578785888254,0.03878437993669562,-0.029263838616142342,0.0380277342869886,-0.02713995004720028,-0.1116360217375636,0.08114544288504785,0.004575891012066448,0.015295989568458516,0.02123540107602323,-0.012145809058069792,0.06139937090445229,0.004885932884170894,-0.03443186888997374,-0.07420301935365796,0.0033267823243820303,0.004453510898500534,-0.06350789153212953,0.014347107627986974,0.07168750280762483,0.01756579073605826,
-2.6357091855243615E-5,-0.06641889069955838,0.0535579055575543,0.006394987782657047,-0.07876042814389195,0.023495271756063793,-0.039318739474722315,-0.04192119845583977,0.07208152944579521,-0.036385356213976094,0.053510316152057646,-0.10289026898864523,0.04663098707902842,-0.04089271830391893,-0.010925694606547407,0.10226033998432937,-0.024700150288673478,0.02809202011183881,-0.04951388504943563,-0.040147762558363095,-0.027681461615833704,-0.06331096473129429,-0.03712377031103829,0.05217400016841385,0.00854926597106637,0.13131639443194418,0.020709965266798996,-0.02840948802205763,-0.00673614385931114,0.0882687329567094,-0.03839264526982443,0.08132805026722563,0.061454529737760735,-0.06939695709140394,-0.0636156325879648,-0.044510737858809,-0.06593642371961796,0.028519315907384754,-0.005353201432014578,0.06968895156257797,-0.028431584501160314,0.008906724905821516,0.003676992237520107,0.00544419627047858,-0.04025056877594683,0.04490628859260187,-0.04421720772321155,-0.025195162172768706,0.03062010661624256,0.012498174267688211,-0.032742183370718665,-0.007426743008926719,-0.05442841222546464,0.07648159583224654,-0.03961410225501254,-0.03554648593809429,-0.014419306607538216,0.014711368892604852,-0.013185390794700476,0.010295320848856405,0.003940745325828304,0.02546324484715879,-0.01601537834109062,0.04043335729809225,-0.03745327790902384,0.015036589513805302,-0.07625701413594357,0.012515101512270449,-0.03286083216265446,-0.07195788398778667,0.07590712232973507,-0.07287803504753616,-0.057346080005366555,-0.040795949360129306,-0.03779137315534626,0.024336758247233733,0.012867352485568171,-0.08580726972224104,0.01059875553463817,-0.011977802841984925,0.08306813300513018,-0.06909664062266178,0.04293396059312037,-0.0073987356019559235,-0.042167984884450914,0.0037754652807620464,0.0039399049791945554,0.014911063402833179,-0.01287028575813409,-0.041713864151296555,-0.10390008957951535,-0.0323592047444209,-0.005358103765530264,-0.02519801469007629,-0.011688082916900901,0.04507349045363403,0.08211341193949037,-0.0034189620402563267,0.03246617767660787,-0.022511047666814377,-0.0015640560137631062,-0.062753021408413,0.11609149435148113,0.0830292644369951,0.02732792622514393,-0.015004772525432265,0.026703990417154558,-0.039369814822678366,0.041564656761387736,-0.034395365380620664,0.08588718714538016,-0.08301915540474862,0.023053183609308192,-0.033493337067515144,0.003897879604358408,0.06107974277068348,-0.05232649058858039,0.05919146708725506,-0.012735157019184845,-0.05342908439772234,-0.047194318957753015,-0.04145388000532672,-0.030348979041777153,0.02442890746342834,0.009070427631515896,0.01698184462810484,-0.002356612555280503,0.07446437915531633,
0.0231830557223055,0.026459253173899862,-0.0127873355483408,0.06800976969856938,0.05155884435324061,0.010858816681324497,-0.01653848655700534,8.431029995555567E-4,0.023811214007923052,-0.05046232202123077,-0.031753564093245305,0.017222525749728795,0.040989165420041704,-0.05714290396856976,0.03720859484214086,-0.020360639029977992,0.06088202260356638,0.057233982947795525,0.06322303039352048,-0.04538764268270207,0.07943023943373455,-0.04437175154177368,0.0022973061732105885,0.024215872957017825,0.030041885646748985,-0.0036534516727243444,-0.05835247649756723,0.1000340365371803,-0.07123630498185059,-0.012199229505460945,-0.017946964418357195,0.012366094470560062,-1.332582954250462E-4,0.006269387233670361,0.047083200462003344,0.14644150750431065,0.03257957515011576,7.959041452078255E-4,0.010498059288852803,-0.004197673557492642,0.03372266371348303,0.013647215043034677,3.645871561150716E-4,0.03454709057570945,-0.02456032888509779,0.010364452288418407,0.024223505653934455,-0.01961252281532795,0.005757627318628517,-0.03839542888372309,0.06215765585610131,0.08275140135238296,-0.006530994089690401,0.0413783083231333,-0.028448692704118428,-0.0071917954256212535,-0.03409845930584609,-0.04087867777677908,0.0038381513926682405,0.03245093268413728,0.029370521598420542,0.012626367434061356,-0.10679161062327908,0.052824365107899986,-0.057881666474941564,0.06160606166926043,-0.07738589480954661,0.02801069633932094,-0.038322571721047555,-0.04962875602567485,-0.08898443328661897,-0.06369282009249853,0.04361652951689787,-0.0011642976150076842,-0.09547265796352178,-0.028806825060420434,0.012638272581807788,-0.022364487646038243,0.07584282627839778,-0.09393009647927777,0.04221021184173934,0.020965865616230095,-0.0021035259096284205,0.09950193169876176,-0.0250974992214484,-0.04426537122666783,-0.038177513885663095,0.08939106748671914,-0.04751498590392298,-0.011047443571971807,-0.027379275668486087,-0.03958560102912217,-0.03167742100899421,0.017845348725790296,0.0561010640689845,0.06703950256312784,0.02131641532654154,0.07827423469289056,0.016295560770749642,-0.0048170199094559685,0.011629329041324611,-0.03644620350210436,0.020980312949707907,-0.039291801638827346,-0.029220529573359327,-0.07850399430304589,7.177919775648067E-4,-0.03496497843021854,-0.03945773780979066,-0.027091867782591445,-0.018129533279335995,0.011540423798595377,0.05169476801383088,-0.015116453964868657,0.04575413734344813,-0.02859297650311996,0.0066911542595129245,0.05251932301307882,0.0789603232038628,0.01618434898910479,0.050946823124292606,0.05350596420603653,-0.008401212733531208,0.05751883864530541,-0.013520114624470279,0.08855764860572818,-0.011113349796608343,-0.10936223606025364,
0.07628401092517757,0.008264211176714302,0.02076094880306804,-0.02184654575609326,0.01435860868925713,-0.058054558770721444,-0.023963854347146957,0.00810662665516781,0.029600608635520553,0.09401494543954969,-0.0036059764352779225,-0.12878754926181918,0.028598795119559445,0.007811563236471333,0.033613284492941126,0.033885888412300585,-0.017443439893999643,-0.06743088271027915,-0.07939542455961128,0.04710393675673377,-0.10045016974465436,0.0037303488319076527,0.012794194943104435,-0.012808522991119285,-0.012208507707338806,-0.0012816588130042331,0.0018726150872034192,-0.03295067045203546,-0.04889371955410017,-0.0530390571366377,0.03236727834383712,0.050035332444824644,-0.049200160214317945,-0.04306755454604307,0.037212423364868207,0.10053670291037753,-0.07814681370699389,-0.028235497008847445,0.02994289464998014,-0.018536734920468808,-0.08309819467107288,0.05938132740639756,0.021513950426165718,-0.04834445026477024,0.043349132848257525,0.03713381923651026,0.0953872757651536,-0.016713868929966506,0.044099401113463554,0.13181520041237368,0.007980838571058206,-3.879084396576859E-4,0.057583737579210516,0.06180764056435816,0.01024941398614573,-0.014413593701767275,-0.13738622309764362,0.047661426110271576,0.003152869172331005,0.0210962786903533,0.043277788988463885,0.08169900258958002,0.019171794550282877,0.11620484353645917,6.8310513387408E-4,-2.5360413827937633E-4,-0.041249421328666575,0.01325041598995015,-0.028818957638990318,-0.14090733363554406,0.07656679556403925,0.06076056960159124,-0.030023290686779787,0.023156693541673004,0.005288155395235247,0.022506035980966222,-0.05206952727858175,-0.06187065171838851,0.13150930777711486,-0.04262024876922438,0.016567493312598085,0.007390487047878757,-0.0711623519248078,0.03126982538031036,0.04087316261004668,0.042377078430416076,0.02311291613201207,0.03633745174405303,0.07365165867819394,-0.0776046300116165,0.005896061353768107,0.08865247072337194,0.0356991297962983,-0.09238358938366878,0.010246902476429788,0.016148778771451006,0.04433994670716079,0.10989774043063066,-0.05051540154431786,0.0586105522515921,-0.038089470399048746,-0.01152069858056626,0.008669890078242712,0.07538403483145203,0.01657088246636241,-0.01824771863231966,0.09947196261103797,0.06700053872543262,0.004687996676404785,0.11382889949862661,-0.100643854180746,0.08585801531942049,-0.05309600159449022,-0.02316616852609954,0.005276378207468374,-0.03867711349466236,0.039598647509319886,0.02439092480865424,-0.03363485938562368,0.0902078805914589,0.03463707455937915,0.003770162733767563,-0.01754303778312284,-0.03833531009486206,-0.03581318313021804,0.07698942422376615,-0.04325817313079219,0.043031459941010625,
0.0989309178244921,0.040833791187278264,0.02248666852662196,0.06060640812092636,-0.03507909776742856,-0.01938491059453813,0.0444927570362073,-0.02706652170900588,-0.017473477819581383,0.05328578339211098,0.053003907415644064,0.013580375843531648,-0.01774171557821645,0.07464620066781358,0.09493231727145268,-0.08251132850710502,0.02130844646292636,-0.03936636326378569,-0.060794627870616895,0.02670499248766052,0.023420346897797217,0.018183805206426356,0.12769421560531494,-0.08068148015010924,-0.057533441139859615,-0.006568138086723796,0.016442795289366083,-0.003855355343594058,-0.07279084285766162,0.026801832612472806,0.009109222103963071,0.07924081036403682,-0.06611128107111414,-0.04220563603188866,-0.05956473541099051,-0.04681488857801639,0.01173047806590439,-0.056408110122484124,0.07530353572618247,0.022950894406691832,0.06321690516878341,-0.02388232938774601,0.03543609713286524,0.01821901468215562,0.047224797507948515,-0.0814182516886916,-0.0105790349607678,0.013916666433369487,-0.06083528973688162,-0.014867251303134453,0.00413627709578147,0.03607624241650599,0.013218965625410285,0.05119714927589902,-0.035642006715708684,0.01915368198597513,0.04184110910224079,-0.07407966883645976,-0.030231313670424878,-0.03525501858036847,0.038666221711883025,-0.058826246250072725,0.07218660893970988,-0.0385484617482231,0.031100710228134838,0.03197235392541238,0.019104156811786056,0.060911708331189966,0.008275743129081031,-0.01570735090875255,-0.10320339982353532,-0.055923837531198166,-0.004882679952686091,-0.06379745602410375,-0.02615218147646713,0.04750944104954671,-0.005889111055981728,0.0029743179126549613,-0.04591103638551172,-0.012966046358922054,-0.04804465388098117,0.0703160561454593,0.03790905320893229,-0.02508288428630606,0.07462542500631535,0.08477796554073053,-0.019498502915883842,-0.06155589556742119,-0.05130857970506626,-0.03718353443699591,-0.05264665955082376,-0.029537700116449746,-0.07426958960682588,0.048119892789423906,-0.06597388933304875,-0.04097043714795788,-0.02707204969548487,-0.021680362475110387,0.05740223482674331,-0.05039540518531778,0.08604732076535049,-0.05537030931316642,0.0505747060425124,-0.016272662384735622,0.028369177456930107,0.022936190797084782,-0.02208080852517846,-0.020214311702227462,-0.02626997103526978,-0.06250477649111716,-0.006298309016696444,0.05012236364356189,-0.08302636205712403,0.00142786334489068,0.1888931445849884,0.09970317469833195,-0.047761876361322855,0.0015759105299359953,-0.01614581148474135,-0.06927264284869496,0.06807593694793289,0.0010331978935217915,0.03421132744485397,-0.03989926571207097,0.003960952054418199,0.04464301212308502,-0.062052256749181633,0.007719559407915401,
-0.039318699564731024,-0.11760116522011782,-0.008872306326999006,-0.0387806655650666,-0.026981769599018737,0.03083087335009968,0.004166551249461335,0.03812605214507671,0.13382863523564897,0.022747175647104375,-0.10517144480727286,-0.09351544431190255,-0.04905527526770179,-0.02286680594861569,-0.024193133050843637,0.03770725464140028,0.03565650455260531,-0.056996350787110045,-0.026908963207519593,-0.07796948309080155,0.02824671933891163,-0.043855974966129425,-0.0781813082732976,-0.002228471428355441,-0.10651018779265348,-0.023018275532591198,0.0012735306146242405,0.037124277123061815,-0.030556454280706094,-0.009639195351601093,-0.12380771623087546,0.04451635341490029,0.0605642103401768,0.002101815714615383,0.011892370323519122,-0.06574147929833955,-0.08012732915051136,-0.04391255891656238,-0.032003053204467356,0.04489940443924438,-0.004285376696899159,-0.0420833303354947,-0.01375118121852735,0.03786491169349581,0.03133548322769009,-0.0648032332064734,-0.07527247137238283,-0.08992218551438076,-0.07122733068645817,0.02553829084131324,-0.0018586367239645813,0.033979850931532975,0.01734247836154309,0.006361564157057129,-0.013438824474924074,0.07787062374380965,0.019750671291859898,0.009484671364984182,0.03309274496019637,-0.06157140068905412,0.006254685432485048,0.0012902947885167317,-0.025257012063411778,-0.025946145091449033,0.136911327634212,0.04993615648851235,-0.04434398227770594,-0.007505425731404232,0.022643563533882534,0.09310025853513397,-0.06221625769391605,-0.06045434253848288,0.022230954987551368,-0.07525935950148435,0.020987631372591534,-0.041271698317691737,0.02580508057306954,-0.04075774686223276,-0.07187095198304538,-0.0011223561587858258,0.06625538815529454,0.02441057016548441,-0.10713546162552212,0.036459970494851855,0.0395211337005986,0.007313399410578444,-0.009358785051070281,-0.028388700896699693,-0.07734955808370803,-0.027172290443761394,0.03946584656659681,0.012106166885833368,-0.0024295371133364885,0.034276232635390085,0.0046134372715271234,-0.09124766225430324,0.029817859050239787,0.012312641385193742,-0.0017491227892897341,-0.07287096881396218,0.03662925949185208,0.02140097497137701,-0.019219997593715874,0.01532203895751743,-0.06956762587288488,-0.07292473990098852,0.05516574826983617,-0.06432368607875764,0.017763740684102778,-0.028012828238461924,0.07616360264818249,-0.06391478361361601,-0.07329423725286274,0.1042924898090018,0.06584944318847089,-0.0554435014860727,0.026371366562262705,0.05726751978873595,0.05730559784944936,-0.013041596030518396,0.015406279909293991,0.0021490857534499637,0.10058006494050949,0.013212367184046192,0.03455409753265403,-0.005492490718282211,0.05359259826325224,-0.049042716685068016,
0.1481539821247236,0.0029042681970271426,-0.004728884892239518,0.012102750928410823,-0.07334040866761195,-0.00904986802648629,0.10110140648547034,-0.033576716829088915,-0.03585331547698573,0.039010229416192366,-0.012671426261060353,-0.030767967710226697,-0.03505903932288248,-0.01428498336669894,-0.024182351767562543,-0.05741901018527307,7.471350169361477E-4,0.003950434948199728,0.007803289278024914,0.010244661164097474,-0.01757131779963248,-0.016612256617999806,-0.07318306763170751,0.032450405659958007,-0.084717149354375,-0.024379718549746566,0.03566895816615175,-0.01915591994347555,-0.027758847052073606,-0.042223460436877254,0.025226546167552016,0.044523390675415435,0.08805953789861906,0.021234191714046655,-0.05193688242446085,-0.05771550398183646,-0.006826393652371559,-0.042693485239417614,0.045988832435220846,0.03047583966594016,0.001158675004264817,-0.014226361256071365,0.06027410024904387,-0.03747187449742786,0.016073060833574248,-0.010550466816638479,-0.13043898207900045,0.06548040171364632,-0.07635057388037568,-9.832792655100886E-4,0.03241039306833254,-0.04013991019951778,-0.010427340154815343,0.054696598162325395,0.023913442580438104,0.03318558052133904,-0.06187448095070039,0.016204276005265583,0.08465678864405296,-0.028681975732475086,-0.05510073476980474,0.018572254623753167,-0.027393667904574093,-0.004707396348059787,-0.03869483284446,0.05584992398473168,-0.0072705972746977925,-0.04758364792890256,-0.04019159335685016,0.0326668715467627,0.014148902419929396,0.01025384189131025,-0.051447495226732955,-0.021272529717029295,0.04086449296684667,0.03226610982319519,0.039921075171099024,-0.007151520033172969,-0.06736055144666675,-0.03821517776194144,-0.0158635264155932,0.013212931324097333,0.012699742089769806,0.024099805732907417,0.008570066113910712,0.04225339536954559,-0.0022901709889645563,-0.05696777212714932,-0.05002754078859331,-0.021405249491153872,-0.05313775997952498,0.02183884716129779,0.10869209385542655,0.007291503531599026,0.009138247052191855,0.060380875247082536,0.013514459647396854,-0.06677980954178865,-0.01891187158774083,0.03770991044248867,-0.040169503661392596,0.01220808769841983,0.0696511212859734,0.0012068496677896648,-0.012037875238730929,0.12423449449390998,0.026151741134500896,-0.011283089430286546,0.04625744210605743,0.06312492605070444,0.00639739923150785,-0.00988726134529494,-0.057818482925554915,-0.01656130920059247,-0.006952762545592042,-0.039501102679593066,-0.060828764166234256,-0.02256531238352505,-0.04246754699132152,0.015579964660723592,0.0021557444001311984,-0.0789053787095692,-0.041023587794452164,-0.025614956717052474,-0.05536822285213086,-0.023675074586029694,-0.021111318413698288,-0.017945719932124012,
0.001958838752183034,0.019800796970317877,0.05062531845651372,0.015672772489153854,-0.02180720983949818,0.030982971559950518,-0.036111516247255095,0.030879840175320666,-0.015880331687911777,0.005462103660626407,0.006489032919661419,0.008043528609551471,0.06006815920216594,0.02446110493634092,0.08704166172074634,0.023283733428233856,-0.02951675162717042,0.04630671709253886,-0.025324406352793778,0.025995460260254663,5.892310072687098E-4,0.06922787258787992,0.017759481665565225,0.0312724422735169,-0.05639090429895143,0.06847133788702923,-0.012592425987131806,0.019474933431331522,-0.10120906073019804,0.009249750107617067,-0.030410704486873198,5.06650709584567E-5,0.027135638675767494,-0.07141728075587953,-0.04480266666013808,-0.01142983020558173,0.08011179653198029,-0.02679095029504827,0.002597807013606915,0.10697044981300213,-0.022771035895744435,0.05963699753133766,0.018320923826387437,-0.08731674055019016,0.0012468756760151637,-0.1154003043660336,0.008813519186781502,0.09357551086254623,0.0720179549073568,-0.014821040538707687,0.12496807395933923,0.024980129500501505,-0.011019679569181241,-0.03470930676910787,-0.0050462722951042606,0.025425288018262594,-0.021410217360956836,-0.0028414078655215613,0.022983806862088736,-0.02738384083806772,0.04752806787484249,0.0020487142163764173,-0.013485900324530379,0.0264463448917333,-0.018864875471540067,-0.015805933307063133,0.1212907998475326,0.05365001463115451,0.02020820854130808,-0.017093162260787925,-0.03915584316197806,0.06350741379584057,0.021449792864825165,0.02115679766573294,0.048481176860035856,0.007261208512636951,-0.037424895042508594,-0.019450595354716924,0.058718830370381586,-0.11604124000446699,0.0321767275128961,-0.021595406120258606,0.009826851292141236,0.03985943371741071,-0.0013086443665197272,-0.016027320796972815,-0.026715347128486045,-0.0400494341773803,-0.0710866360264256,0.03757808687854783,0.010787725358282093,-0.010500379773584936,0.09032576573802602,0.05341226253699614,0.05798948140503322,-0.041239409643902464,0.04182891868428451,-0.023188540705722446,0.004913163832847224,0.050247239263181524,0.0226515433246576,0.016307395130998846,0.06655953588952983,-0.12836049100400124,0.02732079142407505,-0.06574389711672321,0.009981776266520906,0.014959006247333415,-0.0020913079075372707,0.01492145445158283,-0.0335267502823811,-0.022088793169372845,-0.002190023888739379,0.045860293093385046,0.02837604254358235,-0.041572607660128214,-0.01149594419423984,0.0639357951950568,-0.04687490639342062,0.0019381400066358617,-0.008254506177383878,0.08967758326506961,0.01497716562327684,-0.031220026582278272,0.08503083557155702,0.0035008259982582954,-0.06686205735905933,-0.05045717138338454,
0.030098554179186617,0.001695362279990826,0.022886803930500563,0.04363790034039003,0.017775962837786888,-0.020985266224128864,0.015209111970972876,-0.039077793970461815,-0.07061211483248452,-0.029980263664036423,0.04692005549255815,-0.11972575462284632,-0.0016204301134648239,-0.057145796796752496,0.040194477564523476,0.05381003273751575,0.08692870977416507,-0.07581554470532147,0.020230107833853535,-0.020486445037095832,-0.08119536887313554,0.024330849763431556,-0.011743347871545918,-0.005129392780254739,-0.08490547796781217,0.044092391468665657,0.024504359905098767,0.030298546448838518,-0.003780716536809329,0.0397307161006859,-0.0013881156157618325,-0.005332876153394543,-0.005979148898864747,-0.01593850141895203,0.04086006320719593,0.027041846338131503,-0.08233052858665141,0.016914878538163005,0.002996923191213478,0.06428227509642484,0.05857891464466961,0.021624635488727256,-0.030962413749914347,0.02318114586467057,-0.03598011780410692,0.008119596910072744,0.06779572979693131,0.085776993303566,0.024819805349212874,0.015726264283035474,-0.012889855131606438,-0.08700670969239911,0.012432619689673095,0.07845067920540483,-0.016576970163913927,0.06529335043497628,0.02080476278244142,-0.02114242090276697,-0.0542220801893055,5.9699435681196685E-5,0.016548798122845928,0.05027711281756726,-0.016336572956410614,0.01425314730262711,-0.010125826037317367,-0.018194403474426645,0.002402052582016529,0.05708744019122323,-0.053916068960417396,0.052862646890355185,0.07586404179615876,-0.045136700342046226,0.019025456066929156,0.012623917989096557,0.046557358461103024,-0.05518015075168963,0.01700260066656611,0.12515262762972093,-0.019673189316391206,0.008485109475780846,-0.03908887544101888,-0.02899722295533322,-0.0022093817380447545,0.04174194929592501,0.03886273206655197,0.017560051382845984,-0.04558487595302168,-0.04765147253791926,-0.013793543522298361,-0.028798072477125625,-0.011934494621027764,0.04326618384126557,-0.036897531409188514,-0.01015730575449334,-0.07980692727148471,-0.08620803555085767,-0.07697815495729476,-0.002121591346317246,0.026218687946500743,0.0021056954658729967,-0.019286352121550648,-0.05698744930410418,0.10993462219965507,-0.07268367310825512,0.01333466203735758,-0.005201541422029547,0.07221897789911046,0.0017480752935015399,0.003863703111385872,0.026320777688606474,0.004265226536643342,0.03737814003981526,-0.08371381331929088,-0.030392404766570076,0.007738504065877898,0.05398729599409505,0.047448095698098935,0.04243537386269263,0.04587801008860523,-0.043702085347338916,-0.04232426860150021,-0.016703891430370554,-0.032545866991374545,-0.07988336712023995,-0.03686269689066039,0.019033213245670505,-0.03487747409401092,-0.08683983382711101,
0.05534627962581519,0.03437434439170398,-0.03187062773659963,0.07689257492975729,-0.01477926955088004,-0.05356929230482117,-0.027115850593935543,0.009325067989471374,-0.06729280678029352,-0.06882284399849874,-0.040888536873471965,-0.023234631525189498,-0.11539016015511022,0.04862726348887482,0.024757409347953233,0.007137617394037868,-0.02002156343969171,0.013044931617372177,0.04748721918843256,0.07119508122725247,-0.05829295886566632,0.10100688700940891,0.016002667633062777,-0.040507784960981424,-0.0668794245036819,0.08237442976404107,0.03610601960642957,0.07676343969401218,0.08043849569112214,-0.07012928530537266,-0.025310017958511136,0.004447577038845763,-0.09137983333331257,-0.04329101884733225,-0.027819876083452162,0.003952139191943894,-0.05425219819045351,-0.08564823494887552,-0.00973140493241502,-0.009133753208158417,-0.09186099663175994,-0.04769302894660513,-0.048317616005900635,0.08591927808793942,0.10013043660532202,-0.03203815837479283,-0.023601739020371243,-0.024275931950186683,-0.03362921499903379,-0.02727975122843153,0.12811700936214607,-0.07124881487610492,0.08396883172743634,0.003384968588722642,-0.005706704925604576,-0.013352990518988013,0.09349511378182203,6.992120177278602E-4,-0.009954289813299114,-0.04263321581445174,0.04159800814485818,0.02056626166103947,0.018537146045079122,-0.022154156042399675,-0.015589670701930647,-0.037650117282920996,-0.08229947351262185,-0.054782675385121854,-0.005705033722865854,0.04659101009079754,0.02599129626845875,-0.015574807530535782,0.031247405432747018,0.013860273402068888,0.008867609287053694,7.103708721228872E-4,0.0337763100097927,0.13716932105043997,0.11257188182832421,0.040777885406458436,-0.026835616179753892,0.039742370713627406,-0.0036566125636484075,-0.010460175179038168,-0.02335647939212882,-0.047388717102342076,-0.07770320800746425,0.024232572686257683,0.041923606211004445,0.004767880659037212,-0.019251681336904806,-0.03655217014919961,-0.0027370924994850887,0.09855094888474378,-0.08130078096608874,-0.034080019196762096,-0.06235416103133961,0.06144759116969606,0.012863691108328685,0.090289782423496,0.03622537523272678,0.0649811714810346,0.04315667608042916,0.057407328581254524,-0.05144594727548074,-0.0417537485581419,-0.04187278987323795,-0.03907013830704065,0.024417437418700436,0.018953556875906163,0.021840251248630347,-0.04410645188279305,-0.01807638853996379,0.03736087584566212,0.013296300404496973,-0.003322075067611235,-0.040746989863315715,-0.05132016402604185,0.0252553764055206,0.0012800316692359321,-0.026579164186152422,-0.011460486848303007,0.025568585451544168,0.07062848735504362,-0.10010484524987587,-0.07538329507743001,-0.021563446957922918,-0.004616225034130054,
-0.02304558028188923,-0.11074205232753798,0.03841847268144195,-0.040318299517455636,0.025157573513110307,-0.008663542140291946,-0.030347348262408442,-0.057136524677593864,0.0028375907468904792,-0.02442041044802128,0.015438034868796186,-0.04519590236290322,-0.02148679316128768,0.025075387978696868,-0.02213666716137919,-0.018425099855612723,0.023875950370105592,0.10255151852074683,-0.029017652472809158,0.016125690543408278,-0.009380961956333757,0.00888229220885464,0.002823714460771041,-0.008605052011669162,0.0010306177327090425,-0.01825373320517978,0.11852852767047393,0.006974303299680302,0.03732854978808866,0.08474124462656825,-0.0606830119087651,-0.0010155212245769917,6.43263946161662E-4,-0.015750077490933854,-0.03542032787179302,-0.05691848575439689,0.07051936960833144,0.002048085232883306,-0.03249324538777567,-0.03827053680109463,-0.005397097077701238,0.01446125709082436,0.0364119412308807,0.01314370667096681,-0.014559864307778515,-0.01650291959617882,-0.04112259582363361,-0.04560683215120914,0.00814153873953609,-0.02297510401189408,-0.01849674427837712,-0.13106225825108386,0.015944232733072782,-0.05043095337548925,-0.05864033693796442,-0.02985853066104806,-0.026717841194598992,-0.0015237208300692955,-0.08522645331615977,-0.07882360395823762,0.007377060198867344,-0.031875193669301215,-0.011025829559360628,0.0032586470588100015,0.034706916076284525,0.08493829374642281,-0.01950782605579225,0.040005529503545405,0.020889686307965127,0.02246457070763773,0.05272966963060695,0.04606408219720445,0.04700759476741484,-0.036148432908542784,0.10016101412542343,-0.02674436674924053,0.05425506574142097,0.01440371374052215,0.018398000845520786,-0.03259689201033011,0.014931741240542723,0.034777373008193065,-0.016980825564879284,-0.007320080167036869,0.13373258233255694,-0.022372577806379274,-0.06639506469026162,-0.09264314680703853,-0.004527031661742706,0.07025567157388023,6.544130754682243E-4,0.052917053967316365,0.010690484175758299,0.029263285304907218,0.015221094036713107,0.0605911841298037,-0.08265528541433967,0.03432855024580474,-0.003471208503792814,0.06030948007444429,-0.025470665935017747,-0.03470062024373931,-0.013596927361369499,-0.03157123937854817,-0.02950116483611073,-0.07562135766841199,0.03816965568047885,-0.09085540667583922,0.006897318783646485,-0.0032982466149420256,-0.0493099358861538,0.03401889872606602,0.015033325118814776,0.04992012904641083,0.036031537121344236,-0.029676522274656444,0.00743700338611442,0.051275094204297406,-0.12202703895175854,0.05085557586124867,-0.021986057819623674,0.00841026121023824,0.0021390694793106606,-0.05310925140260937,-0.03013698387485326,-0.01335567414272993,-0.002538249600668306,0.03587577583304977,
0.05241689748061354,0.07327760467092378,-0.029023201456125726,0.0015517486885221064,-0.017004357476769993,0.014931832712042598,-0.09109666685183072,-0.012225132238177082,0.03877294109036526,0.036653074066904955,-0.07190309495579038,0.12987942824191437,-0.03410890851416876,-0.04248985739427363,-0.05301967623106742,-0.041172898898685445,0.07698188717060804,-0.020773108514006593,-0.05880932641811196,0.04975336299842023,-0.06820402663224237,-0.12374551025625213,-0.049903576659325065,-0.11706400481212745,0.04308246052750196,-0.0028844164760079604,0.056787567590561853,0.0027311292147061744,0.06603366876845172,0.031689026598401844,-0.04167451625741686,0.08148428827480492,0.045686171317114145,0.02500447054943422,-0.08375769586697951,0.029222643953922406,0.13092840498803765,-0.05438642057381258,0.04227050232397649,0.08688001889644682,0.004236858038290907,-0.002643481113467354,-0.08039661338862418,0.04830584829143887,-0.013388144052580831,-0.011021033292022068,-0.026694682259259014,0.04557870015612178,0.018275662242270903,0.07254109540736153,-0.035194692845572244,0.1281626824169226,-0.04620663472537844,0.01878898907604539,-0.04685722978690431,-0.09708098828316888,-0.006380049739320468,0.005693683075244398,0.05572170400608494,0.07022476891339106,-0.07813959783418829,0.021235835430396147,-0.007607975735295532,-2.9585237716186276E-4,-0.05421312190079154,-0.08322427927146785,0.045376624855230245,-0.11843622125218208,0.04804472791537789,0.10098077214412644,0.04046731700306012,0.08833864700327024,0.07401484287274657,0.022387750777514204,0.011440865043931346,-0.057526962343034574,-0.1007637520416564,0.037762002029078826,-0.0648044543087641,0.011480362629560446,0.0396501605154125,-0.001703580825994048,0.12756251074245403,-0.07223285258966305,-0.04011683990258099,-0.015670806589750834,0.007106199804023406,-0.04384430399798329,-0.04687461882037228,-0.025836355037169013,0.043233226137015496,0.15939751956345427,-0.009400682515172403,-0.066589464826022,0.09085063154153307,0.02781612115817711,0.001367179973538835,-0.06131045336718698,-0.02756550387209163,-0.025176623460183234,-0.04209494781442003,-0.04788500736542833,-0.053461849471919856,0.007920036604985121,0.02025094925573738,0.04543469269261287,0.07645908127205799,0.03883428482189777,0.07459891369499246,-0.018760389858844435,0.03106544758367237,-0.02102802984626869,0.015015772215191688,-0.0042243951024762616,-0.017812928726487636,-0.009939143308259813,0.010892366147099541,-0.008192370779350727,-0.002020868375595611,-0.020001838247275836,0.04476255618887914,-0.0771170841884335,0.05439604903227916,0.014119660093938807,0.028945177968404835,-0.07270856277845432,-0.058272183402638046,0.09327145650058305,
-0.031151550298579696,-0.055384285086423984,0.07177438522998042,-0.06914107736786242,0.07989027146058035,0.036586284177797634,-0.0014392814394131666,-0.07354509419096009,-0.09557515385853166,0.040302791986194325,-0.04330520518087726,0.04979831898984201,-0.12340881009787286,-0.032053155130308354,-0.0797246933373628,-0.02240819668074258,-0.041046077569299094,-0.08708398898356698,0.009790305344610999,-0.041675436882063155,0.030355603834981162,-0.036428170202585396,0.016044188041832344,0.0040931257759165745,-0.06517180620909672,0.023383909001563948,-0.015082473079535287,0.06354444642894151,0.024708386497086315,0.055987216031817416,0.014689354206659731,0.00865938411439387,0.15362812340215418,-0.06260244414840688,0.04760841730287822,-0.007305412010347122,0.07636701854348142,-0.017160302564676655,0.04433944488320363,0.0772576089565783,-0.11655313221327156,0.06037377823746352,-0.05275867623125612,0.021799637091534662,0.019026114415530336,-0.06241872842643092,0.003451183247960959,0.017485661216696483,0.1013550110644657,0.05430253039959895,-0.012746236881266164,-0.03382852374682501,-0.005051239334887094,-0.09377172592503401,0.03568158815521581,-0.02611550796110701,-0.0162495361878301,-0.07205430640669053,0.010474288204574331,0.016327237137334,0.035351905930581455,0.03265549978489054,0.028826506912588718,-0.012177156189305555,-0.010262105303372269,0.00310062981860792,0.05350612265866011,0.04854847494290047,-0.03357684281063624,0.10024523341740939,-0.023420387842285145,-0.02582122736498941,0.08487663464301759,0.02376091471105353,0.09715568724889659,0.03989141805134988,0.051539709863473115,0.02080805989584355,-0.0871570848252698,-0.08083818228289476,0.03575526833504252,0.04626591236820152,-0.024526580149512985,-0.01570515038023898,-0.012191926094133127,0.06603078903563768,-0.02008983314561928,-0.07383946541757314,-0.056007759571026584,-0.014187561001056151,-0.07708212913798866,0.018751171712835215,-0.0358223140215825,0.08143880461931954,0.046995992944645404,-1.68952388432848E-4,0.0731284921916752,0.024195380489908463,-3.955723379828299E-4,-0.07223993215912963,0.017820053848548397,0.1015240075900492,0.014902118121583803,-0.03669719586599248,-0.06415097865654672,0.07015950820512974,-0.062243111432632996,-0.021512539892084275,0.058377206243302594,0.03300935401146191,0.06477963864216511,-0.060749956936296534,-0.028221038708776982,-0.06409510612016979,-0.05013238373498591,-0.029948885504645535,-0.06222927909165821,-0.06837184198422494,0.041572299100089166,0.02359026974854482,0.0011372251445486911,0.015237445717169505,0.03657998317495219,-0.063032076600178,0.020369699616384084,0.010575656915258996,0.024775265427864762,-0.05949824880314907,
-0.0032498879363437277,-0.06448012909405053,0.010276871049615562,-0.04196133387279155,-0.011031309832930186,0.07632374205250501,-0.06389359455870705,0.03885640971300851,-0.06201140462575029,-0.038289328556804655,0.10279989859885877,-0.006170885199359553,0.01114062594045322,0.052152642087386916,-0.031115769740737948,-0.0021363528499388803,0.12254962279441857,-0.05591687250500295,-0.017998484446540203,0.04952095667263398,-0.06283679585069989,0.01054100670413559,0.04461267092014112,0.012841625751509815,0.055019089885687905,-0.061418787715697004,0.05777659099519834,-0.012207333840065684,-0.027443618330070432,0.005797450989425141,-0.013041719793304636,0.007992640492069337,-0.02849054156407964,-0.046069463765155604,-0.0020634718256211004,-0.05769791610525417,0.008661288969557672,0.01583851897101231,-0.0013558383587449537,-0.0057797849269091255,0.050214911387313224,-4.8705921634750564E-4,-0.05332938949019531,0.10758519754419048,0.024707571936297204,-0.016346138372039395,-0.005951793226610741,-0.03946888869783469,0.11635259624749508,-0.012391729068960133,0.08570677887500551,-0.007372921852695448,0.040510128600032426,-0.0036980835429011867,0.07135955216199823,0.040042663689384264,0.11161237389909927,0.07369973612910326,-0.008184894962252455,-0.022345774170139457,0.017059465221344404,0.010222292695461807,-0.0636920592278619,-0.01101264599925812,0.05110768640745984,-0.0666244634359171,-0.022972742404129658,-0.00282760760037873,-0.04308881800657885,0.06646564681281174,-0.06369172291297161,-0.04074518411505074,0.011688346881460025,0.0583101753987709,-0.13596941269351823,-0.014244582494513852,0.007726317843551149,0.023407665766101877,-0.08369601311437906,0.03402606971599972,0.046032387411305914,-0.03755867093071967,-0.010760991840863383,0.0450653984264586,-0.031166587541244947,0.001990679265388121,0.03282674236120133,0.05453193176127589,-0.028591060163168865,0.020197638983797672,0.051477148763982086,-0.047047089252965496,-0.05713458289724465,-0.07891130991763717,0.03719220992209062,0.002310805540592634,0.0443662173523183,-3.023664189928007E-4,-0.009482429394982452,0.0017089597505317478,-0.03275495503561627,-0.06771233568438753,-0.018584163347351305,-0.05078897169107473,-0.03043109938574744,0.014944018120887876,-0.04772771410438967,0.08019842744723973,-0.08574528720440684,0.034749018500199395,0.06894429823711638,0.013815922616086364,-0.0167183594049701,0.07128216605552866,-0.04329117954254107,-0.019077677669296106,-0.019393346350243187,-0.03783167290358376,0.07931275695930663,-0.041789076486938054,-0.0302084470229776,0.026517630537275128,-0.020190036001396114,0.05462151851867322,-0.013970805952035826,0.007823014704201046,0.04671812970571235,0.01155621372876669,
0.02396284934616432,-0.011325831939862724,0.02679965940361851,0.016403533972556183,-0.013969733222134326,-0.07175337641029818,-0.004133561232395169,-0.017954024184937557,0.03542857523860808,0.005846976614993175,0.0082568199625493,-0.03617193977113128,0.0931053191491688,0.06367640071197943,-0.09582643825763182,-6.318850972265766E-4,-0.027435422552522806,0.12266729615194945,-0.03110020198361378,-0.0766954759008568,0.05534881480166649,0.015665365722467513,-0.037151259642939666,0.06874186366200477,0.027714197878182956,0.07393385065542639,-0.01514328020636657,-0.03974870320807803,-0.04486474351864027,-0.03644659847546234,-0.025501093025425997,-0.013932019888956463,-0.011196672180033864,0.06608978289582292,-0.0031560671174722063,-0.035717866796235384,0.08877638915229806,0.0511162689188207,-0.12064144253146976,-0.008069636889507846,8.17840815379332E-5,0.01669167482958213,0.02900465245558373,-0.04149836207455672,0.014560497027191546,0.029950374393101244,-0.03955838997466471,-0.008789280875815843,-0.038287153624518094,-0.013476355373392264,0.011500995448919634,0.01851918182641516,0.016168155112046795,2.975644394420851E-4,-0.018018345655825146,0.07128263243127583,-0.024732709679625126,-0.06847870146184949,0.0564047580586776,0.03237062588393696,0.03701860714583222,-0.043034586867613606,0.050599617783991774,0.04938756471945473,-4.0282290238151803E-4,-0.084974122200771,0.048528714529773594,-0.07053834026341431,-0.039578364814018746,0.027910524202543054,-0.03314065230025217,0.05237432507174577,-0.1119316385192603,-0.0036337584189212613,-0.06997809037838132,0.056107559149994796,2.655328599630317E-4,0.06771902109071598,0.048363426930636576,0.014953224876648567,0.04798683186466375,0.008968446480993418,-0.012927272214413095,0.06900538391736268,-0.0782186019758902,6.124495823057719E-4,0.042399070928426236,-0.037101183206964004,0.007335110860960843,-0.07203398825976087,0.03103122947685151,-0.08260002247904617,-0.03514998436619303,-0.04239282095592153,0.1100678536410119,-0.007169029258041061,0.03090011401999826,0.006456214249544225,0.034702444895295045,-0.04085652891852631,-0.015002902636423829,0.0013280034537232223,-0.01418315146333017,-0.02600726578152493,-0.047667582625720205,0.05144527469292477,-0.07407281479211766,0.04448775068723218,2.6035578955274256E-4,-0.03244278525036697,0.0822953767500668,-0.007774766610654069,0.03419796917400886,-0.11738059523705745,-0.07087418876446695,0.04959558253760954,0.02999750118359742,-0.07464039294530443,-0.033882904694275934,0.03348614984061362,-0.018572318281198083,0.038235558669254086,0.033537655777267875,0.027957826835380936,-0.0499833987414005,-0.033255719879315714,-0.050231364640698106,-0.04040836551979728,
-0.030695161071161575,0.023108316111092958,0.033246608440895616,-0.052248055946337385,-0.013341786030909986,-0.026988516979816853,0.020740854322323272,-0.060862905956094296,0.018292514757915778,-0.0664940779975346,0.012806281746468699,-0.06627005737545552,0.00880784554737854,0.015354400461388699,0.018496960752777226,0.007782678753935188,-0.06438439914227445,0.0022732443634710608,0.012236884535572805,0.03454318026185446,-0.019736434926637084,0.007858056599307519,-0.04529082289358345,-0.020768075985061203,0.007883965656288966,0.0760603655374194,0.02768865049121206,0.024361757927181725,-0.04584894012734258,-0.0014033812517392108,0.05322841465181998,-0.04016464967723363,-0.01871855676906169,0.006563493789723524,-0.07777819639317468,0.04611502200508512,0.06674983632124001,-0.0756163409818052,-0.049346118823269065,0.014302854128086743,0.04638970703385607,0.05097982360775523,-0.0164969289418938,-0.01426879079914365,-0.03536398093312489,-0.08033912831839085,0.00338661239209293,-0.08838746496465932,0.014779979136672531,-0.00454428960128545,0.08029829188342268,-0.04206438167153696,0.0020896664340359326,-0.018030591703989754,-0.03398440178825905,0.07704345634823734,-0.038006036138476224,-0.00788750545276638,-0.017621833201436968,0.00297960135131573,-0.08145429893197509,0.018342097140332855,-0.012346666752832615,0.003715152222748762,0.0034107676507645133,-0.10444473090644098,-0.04176046476378586,-0.08914379643648043,-0.08688151373230098,-0.0014319085272191069,0.06048517696210749,0.024147008514967372,-0.06725158191930276,-0.06645670605086547,-0.08228120296662939,-0.05075913210036734,-0.05744219756169305,-0.031822226291216615,0.013011399424167595,0.03395917709875197,-0.055348490448108634,0.040736500799081185,0.0805313085341766,0.06583665467034099,-0.06083120055511777,-0.00987626065843507,0.030242818360655416,0.024578963063172754,-0.18164216493465593,-0.056880398542470616,0.11840035940258578,0.02701026561736123,-0.12059806917681581,0.12071443180456431,0.013851072377199592,-0.05041102867113245,0.07038870713622805,0.08724118121130259,-0.004601979645527271,0.01137305146173475,0.0011984997541314038,-0.028890884814417817,-0.03865620125750388,0.08852617863531198,-0.09810887430294878,0.02048179296205308,0.08061567570772932,0.027922700482373792,-0.09517155114189102,-0.028254170893018495,-0.048624096647519516,-0.04349528667810312,-0.03930943161374226,-0.03308896922675858,0.027728287323986897,-0.07283077713845265,-0.04374489828465022,0.06502273105790213,0.007902168141280808,0.03972088234705204,0.011951248724247179,0.056244159248222694,0.048465851859804794,-0.021853392513328074,0.05407808538722232,-0.005288917863759841,-0.024521739498945982,0.08009211359853331,
-5.818888553046237E-4,-0.09570479565772934,0.01750338357346506,0.10376531461013394,-0.03342953669031847,0.04933116103986301,0.006587795422573997,-0.009335855436285146,-0.0029009897873415566,-0.0038559671415739523,-0.04943465249712402,-0.07406722270240865,-0.054038278145981826,0.02553639842914974,-0.04276984199733149,-0.06690229088354892,0.04469543290007837,-0.007352775321295997,-0.009009224740116114,-0.037211411811508936,-0.06981182198402792,-1.3834243365325126E-4,-0.07001719483024242,-0.06924733712151947,-0.0387667704184906,-0.032376206191672245,0.06358541575283995,-0.05678705223478836,-3.7416088095181313E-4,0.019301879335255474,4.246896944757643E-4,-0.04924360493037966,0.028716130279738766,-0.03011037978386389,0.052243306291186564,-0.03922397440523283,0.013907426021317299,0.10149301828687962,-0.03547995499708161,-0.00864713972734448,-0.04966792000418762,0.0889809743488928,0.013904143747867396,-0.011012283425304775,-0.04575476672884532,-0.03398819040514013,0.04237611474312888,-0.04180893365448715,0.03131636252280816,0.031789363839391654,-0.0023457342176772793,-0.09299534570327356,0.03668699923221229,0.03619261734939793,0.028219884926695887,-0.004492188939364589,0.014811029528644187,0.029891231291515857,0.02096225445029246,-0.023701629214405995,0.11573787833332634,-0.03140868081280235,0.02352196068407636,0.020765024454604476,0.03819987525629179,0.02618097701346027,-0.032770530268102525,0.08778726272891249,0.007875693151507589,0.04550176669393214,0.004124637025208946,0.06051815551277683,0.08475696021095949,0.009342339641795783,0.023370318530681042,-0.04852318559347817,0.1355493311790806,0.043760369602956234,0.006248265243100903,-0.022626107669281446,-0.01906357181721771,0.009176328840566213,-0.04497708289542593,0.06318604604328343,0.03683557882307707,-0.057671488829459695,-0.04793381685222536,0.0010467027962476044,0.004877699879585539,0.09917982055416023,0.1261845974072016,0.003639446584205118,0.08395628193380567,0.004684237548886419,-0.042714975155750366,-0.0733833433068893,0.024831111163083522,-0.012162491098619568,0.07069780956843223,-0.019756773521364086,0.030025666629567183,0.013289703646164858,-0.019329526002906078,-0.00480733453800658,-0.061584481312674834,0.09016464462556772,0.00944224619808718,0.09194200723735452,-0.055057757559574254,-0.004786263933388515,0.07730763165718608,-0.011019528228946335,0.06233939394479581,-7.370551498864766E-4,-0.09424383790350638,0.04078631924825282,-0.023705412284093032,0.018999108512461286,-0.03961770175256957,0.005968776418570315,0.020734178645061205,-0.010059328510313267,-0.010361421464515757,-0.053005343890858585,0.0021160561469844266,0.08828204640433404,0.10099454899821325,0.001015655416152721,
-0.0011914643410327755,-0.03854913801944883,0.044266963204367175,-0.07054508532043201,0.06419685664912432,0.04844739383199444,0.005161601047981396,0.014249488885465176,-0.012092510188306824,0.016686133158127822,-0.03746182872556495,-0.0040613437078892475,-4.1632624678975746E-5,-0.02328350031227218,0.02087809159290227,-0.005960702111053323,0.007433020293531201,-0.038062525365863645,-0.010581996206612992,-0.053754306019837654,-0.05122608712066902,0.008747220408735717,0.010638496312883931,0.04433224894045977,0.07398068695690808,-0.06289764972564395,-0.049278965846715844,0.056289098116482895,-0.07108592021061305,0.03763297755656162,0.03691579745893653,-0.02370083511976621,-0.02541266902456282,-0.014678739012709448,0.045001842671602066,-0.10752981841606186,-0.053653495302232804,-0.024775594146314542,-0.02996840053545148,-0.031520581767101666,-0.05488631645786868,0.07066478676939938,-0.02368428995814617,-0.009200453069074315,0.0315558669231145,0.019352363798089266,-0.022848626129021832,0.07209133272063399,0.036304228061797325,0.004099871910147196,0.07066543508268834,0.021752387266931572,0.039875919793672054,-0.028248013096359388,-0.07684835634027876,0.018944893426717596,0.014235698858559529,0.011747906085678828,0.03386446828945331,0.0308320239916715,0.045072464855787725,0.04981936731247184,0.01137803196440525,0.0025510032498643653,-0.03904827243945131,-0.03344887959584463,-0.03275191997771424,-0.06334022283259415,-0.01993657865412447,-0.013253113420885775,-0.05757165269914227,0.07229464542758003,0.06093560061336241,0.05981864526495198,-0.040908656085886445,0.030134449860067802,-0.08626263688674704,0.043614927854044194,-0.06599402491029228,-0.0014961857334802185,-0.033408961425083504,0.04294069459603553,0.06631252087706364,6.999233789139196E-4,0.007422414836358914,0.030253131835851182,0.014822129052082309,0.07001957724357998,-0.04457247263218572,-0.04296844741148255,0.008088847056664418,-0.018082191253570547,-0.08711851761745931,0.027294923068756,0.06285513161001523,0.0020061709869642983,-0.0058215150584857,0.06768317021921445,0.028542888122716843,-0.009491328426518328,-0.023625388919324006,-0.03772385547358956,0.04283529704551116,-0.014889337457389455,0.011663860042005349,0.015285480502724822,0.010566017233913379,0.019917406998482007,0.0200424589160321,0.07651532413321978,-0.013020394944331236,0.06848725866764323,-0.03166154333542468,-0.02722107445311526,0.015368510262427526,-0.006950128007326643,-0.03244902701030882,0.011482394516655772,0.041057598118944785,0.03149966955690793,0.024804225457773763,0.007966600289709044,0.06834542230324596,0.03984240080032431,0.010870054790389423,-0.006107544816323391,-0.011225618062150841,0.0701460873227659,
-0.03496420614789788,-0.01945092649108457,0.013933973916744594,-0.08944657657237752,0.03342536390506555,0.016249692397281957,-0.11852320496987256,0.022463824718248114,-0.007662125383070344,0.04439425004784889,0.018966940571304713,0.11630337888005815,0.043959573316579695,0.10780534299739859,0.05484297137035041,-0.023846334214518983,0.016473609066712785,-0.03820395500227515,0.032395077004040866,0.00770563685748344,0.046937446409731076,-0.0972049032931026,-0.03535538118599629,-0.05574415646462915,-0.017518227813180697,-0.004601302339548588,-0.12013897406267407,0.017120314015695907,-0.02589713285619884,0.09451357106380752,0.04317105698431636,-0.03499085817743891,-0.015192473159878317,0.0385428442798054,0.005469052670455328,0.005618530671065103,-0.035618222435249904,-0.051950182504612245,0.11122376953542751,-0.016532734201527257,0.007810929010954301,-0.020023867752549888,-0.04148386892913587,0.010573290189877902,0.09954636328168352,-0.09176294800881651,-0.026580018590726548,0.08452184020284037,0.05313377950384557,0.03352733465309429,0.06109521925255046,-0.07434954790184643,0.05078920858066793,-0.11195804691819303,0.06779414559875326,0.0545455524779792,0.030499087209851033,0.024939024822664684,-0.10211112427795899,0.040879217936297535,0.06497187977076961,-0.06989755394077174,-0.01323413392688812,-0.030891140387761935,-0.03524242611366162,-0.03676484426215237,0.06282216007378692,-0.02916167464427535,-0.08493435094039903,0.07040908052073606,-0.030422878869695937,-0.0318804411528858,-0.009457130660725033,0.01950655604091031,0.039038621340321884,0.039726815500235296,0.0023401825661430544,-0.05679256021700888,-0.01368571862909574,0.053548901771992174,0.052881524396722834,0.03698703778182279,-0.04356113330886119,-0.07053205317441673,-0.018793584681715877,-0.06646545412488992,-0.0023911635916690037,-0.05739516117951028,0.03892741810838913,0.024111049054611648,-0.004909342739124559,0.011677249229784869,0.025980107864936194,-0.04700250367596211,0.013907577529635626,0.00926680575468807,-0.05015727471715823,0.05697539487645853,-0.024754227790274794,0.015064996139492274,0.004210764910408154,-0.009775893261443284,-0.008723397260652015,0.015993110083937053,-0.01466744042719603,0.032186718641181715,0.041923881799753426,-0.02628091361517425,-6.989810535321085E-4,0.07379509670064953,0.026611159017585564,-0.029162193559142076,0.1413654734799335,-0.001973286989361921,0.022290865684143558,0.007080611719988153,-0.004748868546347272,0.0012873949255435488,0.005519426389570932,-0.026026049325839462,-0.06458541274357031,0.016701956948137447,-0.04001708415275573,-0.0397128206975689,-0.020542205344133216,0.005010568009429797,-0.054775703826954236,-0.05886228957011617,
-0.017032752165798252,-0.008749456217496938,0.045144256558130584,-0.05922890676483594,-0.0167730204559018,-0.019121712987134942,-0.01943875335970599,-0.017957608415581066,0.017402922379394527,-0.03356130591166289,-0.05602155170740719,-0.07930940226155166,-0.04610085201450925,-0.02831029452793457,0.03176710776715815,0.013574416952196142,-0.043910170825981795,0.06654489994290645,-0.007951368252069121,0.015446593871103073,-0.023614302595775235,0.007917182811809094,0.043521087575381256,-0.051271732207646074,0.005708701996597711,0.03685869300915287,0.07761901729434266,-0.07162122452181559,-0.03200224192952464,0.06788449833252193,0.13267721092512702,0.029790520631532966,-0.010593712967462433,0.015745278628223128,0.014653218788311401,0.030906724695872762,0.08977458974987103,-0.002186260145157544,-0.00307495941097878,0.07091752202604056,-0.018051153437143475,-0.02305007047942588,0.02966366932912159,0.001912936092824336,0.0484207358133618,-0.060219372867750254,0.035611228052677794,-0.04243102250435453,-0.02829571852117937,-0.03183630670309069,-0.005118793154691463,-0.07804928329695614,0.03004226864286304,-0.047217007830777535,-0.02968459822347677,0.06472032188338447,-0.07838965134796777,0.017640925700251255,0.061118268799746626,0.03508193119960027,-0.023743285938124244,0.047047960136373246,0.02974279240808013,-0.06775206848003151,0.013796944277938459,0.04889318049932542,-0.10137058395763619,0.010160417516806079,-0.012101300085378144,0.05763971942127695,0.039535230429791964,-0.005880709041508166,-0.001119741789640839,-0.010364544863881692,0.04373434838032866,0.022588566011902168,-0.0365113407466908,0.02887004257826726,0.05983286550483924,-0.07547740689736517,0.07256991155837737,-0.03170398327563459,-0.0026632415757920436,-0.05113876821889118,-0.01746625039204551,0.03886561890615418,0.04602413747910492,0.03241851121493291,-0.023254920902194373,-0.015339262407678989,-0.08567013646449913,-0.03920722731303209,0.04263139652206655,0.008114815478910404,0.05318781838240455,-0.001264380211296607,0.03295686877120108,0.02882031012297777,-0.021898315773134166,0.018743205369204926,-0.04281637535867369,-0.03750068990931566,-0.04602100982918381,0.02598242988881009,-0.03868954923374107,-0.029010695413682737,-0.02938881212008006,-0.015505106851032383,-0.05692143350117356,-0.018340648115186067,0.035126889039851165,0.00656021967652972,0.06229928420519722,0.010260600543523797,-0.07008546132340082,0.052560478552499394,0.030541087149249548,-0.0343362491197152,-0.0386033925122303,-0.04042792225959533,0.08178973366588586,-0.055876088681895024,-0.04761064699447589,4.882111453538579E-4,-0.06178570227456423,-0.011514050899347752,-0.02514124334083589,0.0321182807868547,
-0.03502346357248619,0.024106010636555663,-0.043492478599666595,0.008156304783295801,-0.015754777929445775,0.025007926992015813,0.05518156839497458,0.06031009549114992,-0.03769368508391244,-0.04644901358582669,-0.019391344055023525,-0.010053560539575445,-9.195047133710423E-4,-0.08483025796144149,0.023841552696107434,-0.03630332375728642,0.129419129272845,-0.04061947778373451,-0.05516017143028276,0.02557674455586393,0.02213876181535962,0.0437107651245902,0.05457509379663428,0.06570073579629304,-0.06291494011931852,-0.027114388146479693,-0.029210989975943808,0.03921890817688708,0.011793304161926383,-0.04401648285330582,0.009518641089617261,0.07980210794691216,0.01732721713652925,0.07428728776498378,-0.10700423400481439,-0.008685361310568924,0.006710411157125264,-0.05530485140211371,-0.03709454903757416,-0.02301632052021096,-0.010383328369651846,0.05643366585541809,-0.03292439062911339,0.10634208006277134,0.026306734993812787,0.049548564190319715,0.020945020119676704,0.049881889948871966,-0.08648805598292088,0.014154364898064743,0.08938081457189367,0.009491052520268236,0.014492912359370821,-0.009247277503258693,-0.03988624106397891,-0.01036735960073562,0.039316155151075366,-0.07610435727783899,0.021644800863976646,-0.05408610255776546,0.050265537364315216,-0.0077724665877096175,-0.04756081874362181,0.08040872267281898,0.0376630862942445,0.03070738121762548,0.002734594167067901,-0.11970565102964964,-0.02800422307165721,-0.028057120278161013,0.02487810491056248,0.006286583017285852,-0.012182548465454891,0.02271609849566789,0.006274036206181843,0.03583623846394776,0.08378501783749422,-1.8765966801756288E-4,-0.014177279790039547,-0.04615613638743595,0.018327487977994692,0.012645054875863869,0.04986657438440113,-0.05483522288223877,0.020873361316709468,-0.006119178152161433,0.03793918734911546,0.009123017178891744,-0.0077481347499237276,-0.07829294841178334,0.003128009485593559,0.005262111415073022,0.03836885493949738,0.03988719299344762,-0.013126224853145988,0.0029705743211483697,0.10001644457353152,-0.008990640595395262,0.1045916838239768,0.08094480105565258,-0.019673951794278374,0.033814699600518576,0.022520373913014747,0.04280315661173704,0.07793931447613892,-0.04158216417484609,-0.005829865513615457,0.015373031976351526,-0.039073110930503065,-0.020485511953328518,0.05871502154118102,0.05123877232538209,-0.004920221646100038,0.004042241097884764,0.021009574119749963,-0.0037228681802906278,0.018870182937784447,0.05646503293997923,0.07911340617451057,0.021335665634711017,0.04566418916277267,0.039680417817840895,0.01957978325751275,-0.0642648423283276,0.02338771215672208,-0.06832367302833707,-0.07887259405078315,0.0060865664010160084,
-0.05371663354720846,-0.08798183983392652,-0.07464983623520957,0.011740943944696328,-0.04479400660915317,-0.08083431675018764,0.03637966618775408,0.06386283075784364,0.033715632691396276,-0.045937160840870316,0.027548266156864388,0.10068284175170726,0.05032944005957873,-0.10973776276123925,-1.6593254308742774E-5,0.034391145538208726,-0.005107775237344265,0.027797645683651617,0.05549377321456758,-0.001049691569970447,0.07697504633633528,-0.05285264277634094,-0.03004259168869545,0.031175101783285464,-0.030593708576618285,0.04078755734270402,-0.08026627101732652,0.03676020676838584,0.037831555865216,0.01273203810322188,0.006810960002920617,0.019978338734835878,-0.022321176604450325,0.061718386207464664,0.034780485022752335,0.018130630255636358,0.012752438842917766,0.009199437308514863,0.006679627368670101,-0.02208538798917431,0.1343967128224894,0.08073437346397488,0.01893335370989012,-0.04568144667203886,-0.04463810175107171,-0.002187046176174639,-0.05102799659655465,-0.0594064852233949,0.060149954933940424,-0.08967698448666311,0.0775102482907093,-0.12314481238752471,-0.006190156270747465,0.04248761132148118,-0.02159857589844985,-0.03749855614360366,-0.029319161992161398,0.0210841686528541,0.053920231828186664,0.006393424381210421,0.011560840599009518,-0.012605196349537457,0.056794895222611,-7.275187008442879E-5,0.0266106138686131,0.008467162562329269,-0.054093970028201654,-0.05968303139770362,-0.07159860352551918,-0.015491733122326077,0.026417296989977797,-0.1033980371334355,0.06017506088948226,-0.09669209181403139,0.003411520143389134,0.027400034512652473,0.035548703114779985,0.009473846622686407,0.00887639004129924,-0.03474611619550403,-0.06294151089477637,-8.717822751705346E-4,0.03119136631503715,-0.018259220986414835,-0.026862282928907102,-0.05940528189315267,-0.04880402729306409,0.02189268906178021,-0.0607531435654085,-0.009021951111353038,0.016664144817019114,-0.0070067398586238245,0.02302672981691946,0.00736721215669699,0.06908041422294685,-0.011962113267562845,-0.006105783866838269,0.007443560710635861,-0.07637496764388602,-0.019060548592424967,0.027259429096605243,0.031957486757211856,-0.05397374689389206,0.09052479292923359,-0.056857460974109986,0.026359328793515897,0.06113500250615418,-0.03652367301708341,-0.03394453145364269,0.05912878139988335,0.019469307323948554,-0.035509005511364884,1.5575876777008021E-4,0.041153308221108735,0.007737100384627316,0.07764508817092484,0.07913351853338899,0.017730573827375095,-0.04310097568341273,0.018910204239475693,-0.007155829332083381,-0.008635099812000618,-7.206125086857334E-4,0.023183253414668616,0.008099427625955611,-0.035112955543380266,0.010988934665138582,0.005615834790145293,
-0.0089078579918272,0.05234321447681596,-0.01954426874835983,0.043681926839712344,0.009274994405198503,0.031970047478312134,-0.012705083902939255,0.019104309137287362,-0.06153583145064071,0.017845205022962114,0.059216042405375036,0.06978016117153603,0.0865165650699084,0.007481680672094342,0.013377377667911368,-0.034681694149322255,-0.07129575131457093,0.08775525345738888,-0.02482658729561996,-0.0882851040853627,-0.1195582793598935,-0.060226355461545006,0.011229185931888007,0.03367485131522643,0.03152161136920594,0.07199851440583843,0.012658679995406511,0.04412331215819557,-0.09428116009361986,-0.06776089650627946,0.0050053403650141826,0.051190318925974934,-0.04821629061831907,-0.01354791783102693,-0.003384699028868498,7.640706573906992E-4,0.011694756011661714,-0.056214416078421085,0.016814760753913763,-0.085426701418476,-0.008115694416016984,0.04583222870574972,0.0351774505590617,-0.03199509488886019,-0.09010639148905034,-0.052349148843054,0.005092637196611979,-0.14957478595291127,0.015625863728680283,-0.09961614898011492,0.0870600136766509,-0.017743317101777133,0.03852484860666603,0.03188586407228372,-0.03668373878005567,0.044211921450142716,-0.030083183252044635,-0.03965774116210502,-0.05661068048973216,-0.014408077471384662,0.0038941923430130345,0.0323394711258246,-0.014835425624780147,0.015600522066020684,0.0576334812890166,-0.02952579852678814,-0.01857742506843401,0.0011681865313252486,-0.067057103135142,-0.0640289850391731,-0.019540047899397752,0.03555844952099584,-0.009527178860390744,0.11953769911402644,-0.06524325223347176,0.03398367774104934,-0.02052234462138562,0.08692890547141285,-0.02459920233123862,9.209902319311753E-4,0.01795196556524849,-0.009636018734234439,0.06552710514554431,-0.0014561768373567044,0.013243445296350907,-0.04457981063079086,0.022063437978883882,-0.05418168062989914,-0.026859943963717686,-0.07679178299259071,0.042725954008315734,0.030425527152727495,0.015093557900256599,0.026518068732046124,-0.04159234579652789,0.09682725314114472,0.024336802820807243,-0.00680840391514442,0.05598720309597654,0.03338185930650646,0.0330035436892734,-0.06157928667669121,-0.11406357933287999,-0.04667387036724648,-0.009757729749117122,-0.013643287810122945,0.005940718010766743,0.0022008346541364755,-0.021490981857229384,-0.004054301405270214,-0.008068484374845862,0.028875799397392474,0.05407712421603427,-5.834085168297703E-4,-0.03695649277355652,0.032262885401330293,-0.08259120874532022,-0.04595664281584426,-0.016593231724846214,0.05990796475542109,-0.00849200144454059,0.008241316461783917,0.0803004752778431,0.028546765452279854,-0.0023057462003945955,-0.07197440509675528,-0.01254262647671081,0.05723814040849953,
0.07145945284138265,0.0406319589225369,0.052895254722445786,-0.06730477568487765,-0.01998481091474352,0.037064852013271886,0.0011791962623532845,0.00538659716864323,-0.019360719125938917,-0.054983979562170576,0.03265883789785922,0.021613756533498084,-0.004298454601050092,-0.01587761577533937,-0.03681766014439116,-0.013707479207845331,-0.03558668592074138,-0.052223504200516274,-0.09285071893395636,0.015057572268299508,-0.05190409059352,-0.08112034713386775,0.04076252823599941,-0.01464566118014252,0.028641147598932215,-0.0038486046547635956,-0.03730053096298388,-0.0629905351914854,0.07879394418484147,-0.03751415102861968,0.05910061595611332,-0.012131739936634215,0.012630250856483373,-0.04789059143059299,0.060714325593389934,-0.06916470076277055,-0.060973687341518014,0.01677154798936954,-0.011692278196650266,-0.001567296646180252,-0.017782438443147447,-0.1384703854009717,0.0034901062565266742,0.03427602636707352,0.055977579534492256,-0.030993113959493286,-0.009258926587370323,0.14617270638652965,-0.02017787271067305,-0.013826866050479728,0.03201310645985476,-0.03042025673588792,0.0025057511305938466,0.018665024478942967,0.039604227489903,-0.049867715763557946,5.98683572307624E-5,-0.01112369382108132,0.017074918030058093,-0.060428205966863185,-0.021725164061506486,-0.13270946193324148,0.07949962251336055,-0.03772139284320827,0.005327768040010273,0.011346026821024476,0.032524328260237434,-0.05307684916164854,-0.006839648240960382,-0.01655042786487265,-0.053557188580506655,-0.008451539445174452,0.015448704059672547,0.026479666568538125,-0.03620850002754488,0.02562551203372306,-0.049993818065911945,0.02199189133253038,-0.015011641937769875,-0.0417472617470185,0.09693749289340797,-0.005741303443714947,0.07200945284557626,-0.07262530259933751,-0.135019906124294,-0.1016090697796491,-0.04850554191079578,0.05912953963982334,-0.01394745654431745,-0.015983142221680634,-0.025108777658092177,0.02605194221879962,-0.057016824001210366,0.09083654194093155,-0.02438527099798496,0.04164384672603344,-0.04830399556993598,-0.0048203226375450525,0.04333423102415088,-0.04766710686012837,0.05290969676295059,0.06528056980647257,-0.008406017460092395,0.0033477189410474036,0.07438954340182168,-0.0915869900624535,0.06123473278001587,0.04800471099254368,0.0332120867539726,0.03296015264085298,-0.01614581668330427,-0.05859436896520597,0.00936805366868931,0.02682185803729009,-0.007986894924906182,-0.04311431828029302,0.043490517544180256,-0.005262959148730897,-0.04111764756437461,0.04524549745091553,-0.016874022928134055,-0.01438658615650326,-0.043185071989784725,-0.0050538654686203485,-0.01655661185128229,0.05138857276012648,0.04239416814832173,-0.05663566823765799,
-0.02677530948594587,-0.07739310706811127,0.09530610519757095,0.02418668616288779,0.05546782713647374,0.009967973151267611,-0.027774778705072806,-0.02240236980605215,-0.05187412368660245,-0.15319527809337674,0.005346578026807912,0.0691236224179899,-0.045828072335767966,-0.028025765345767475,-0.042908993898090726,0.003372993443639784,-0.07334839472568629,-0.005905871833860375,0.011683881556534001,-0.09514816133501355,0.030423755229848783,0.007018216091867061,-0.05534302458477092,0.021544054011762456,-0.07590679221737354,-0.026319088932058306,0.09195486018411216,0.058351258027012444,0.0050110252716533505,0.0267869644226902,-0.029687700990915607,-0.008544874672909679,-0.07696126684149043,-0.04566927052177273,0.08690229075654525,-0.014718809633991553,0.07449328154804585,-0.06450679030906017,0.033677819284122446,-0.06463250515818773,-0.01072348650334493,-0.020884234917907963,-0.06641050863177471,-0.05662992734123972,-0.057501704311051394,0.007080080625336563,-0.04408627077447949,-0.0372502057667015,-0.02523239382411914,-0.0728938475927431,-0.06627735202808323,-0.02148900190518009,-0.03343639587789345,-0.030824470443915217,-0.007660468195032783,0.0460015489614882,-0.06508317625868543,-0.03969667930535266,-0.03983659635245264,0.06741874554376252,-0.01306564068168744,0.007007824404630239,-0.09008546929046361,0.015225284500934775,-0.01370502793699632,-0.019083926765665105,-0.01095421139921875,0.039904637531893286,-0.034805831342436505,0.014548112237410402,0.02753585044307774,-0.04969666062724243,0.006124157728209678,0.012603027673184025,0.03361950054224288,-0.13595125367268365,-0.025869319798944038,-0.02135920431017931,0.0797629939718059,-0.022391966085231904,-0.025981064293150093,-0.04371861456945794,0.004330979433334651,-0.015417420318565581,0.0028076966178541586,-0.006252336204868316,-0.09425853639067111,-0.06973782386830846,-0.01641335751228725,0.03412231950523154,-0.04473738484154111,-0.11729784903507008,0.07538922561819882,-0.0375279211861106,-0.015564700597241469,-0.06371478411767535,-0.04096662691955037,0.043504590610710235,-0.09184865588798338,-0.03426692000230163,0.011890002286186432,-0.01836532804301529,0.03924487248240834,0.04054812717891026,0.018086846715987193,0.06546576960346133,0.02176298387287981,0.025469466587764212,0.10012291503103728,-0.007917456712291231,-0.0473504372600316,-0.012944050767366766,-0.030631133169577402,-0.02336427391133078,-0.034210340848478155,-0.036171326867556496,0.0418538250339467,0.04754018625000535,-0.041106386661127606,-0.028873716233204113,0.020117575068745286,0.020767470920514543,-0.005400894140596822,0.08640196079317304,-0.0016281572509388763,0.11158102108742057,-0.023745913765968116,-0.037581335859800995,
-0.02823438722005533,0.012968474672891138,0.008599742816572883,-0.0555021440949203,0.044598384816927815,0.009066590378507777,0.0012512581786813214,0.09863791967811238,0.003968092468642974,-0.059227744260894444,0.023767111827221007,0.050279591488155445,0.020060948091323152,0.0261876467364866,0.028260926388993232,0.05316901511955822,-0.0740858258094067,0.0029678899389568047,0.127988806496126,0.09552753335758836,-0.0049655628033713275,-0.0724161235746208,-0.058157625242519356,-0.02125784773249187,-0.008510468132437941,0.06891691823945452,-0.06376240966211626,-0.049996842472439275,-0.053337547036717996,-0.0363440477817224,-0.02267687508272739,-0.08805704362668282,0.07322997554317326,0.03492048257965953,-0.03873744186816395,-0.012373781873142864,-0.0772542444133006,-0.019503403558735324,-0.042906698534227836,-0.01996128934126663,-0.014685506263530757,0.013699601742406326,0.04553469621358703,-0.06393146170053217,0.018104754201882067,0.016323977135849967,-0.10116075760305754,-0.09436868075931604,0.0038900022480324392,0.03142007494460698,0.024434699978716407,-0.10446531953652238,-0.015175915854318881,0.014121241799056395,0.06956631245513092,0.0033951162059344163,0.030165503266559753,0.06629987300552762,0.0031482020100388796,0.016897378933855227,0.07854264527792992,-0.09710920774793791,0.024924908776431196,-0.04135040114983164,0.023431170498809526,0.05571617820664248,0.01412338454771662,0.029763564593320847,-0.03362483751788876,0.031406267990550345,-0.06084280780453632,-0.03109271574122842,0.056474623390313186,0.0018883426774558535,-0.011961668661126012,0.06133558848505745,0.150236942367995,0.05882244196449287,0.0010945864252354055,0.060791339584545884,-0.0847921321353859,0.053062381715112864,-0.02067101134509933,0.014817799107017377,0.03798905200522418,0.05768366323953809,0.06254795864271905,0.038655214430254665,-0.10092763386480622,-0.06396817563904918,-0.004667891937832046,-0.07013140211126365,-0.11920441819087811,-0.018482421870516498,-0.026871397768023764,0.07282794268215362,0.007984794888895549,-0.04458878121829696,0.009652455568554472,0.048443350643934034,0.03087351828706261,0.0666998621436135,-0.0011745871404606834,-0.06035653801328026,-0.012119249087847101,0.026224371568961596,0.07147723342592,0.04565082860226292,0.036947419472835794,0.009097873544335345,0.02825605759381023,-0.05164148429182937,0.009841755313172433,-0.040618348869207795,-0.01044445440093645,0.012542983722653956,-0.08250737823910187,0.008258450904206321,0.014186531706940751,-0.07459548320593272,0.0739348863336629,0.050357141641041374,0.04219606392524883,0.009797588561050865,-0.015280130915011937,-0.13064022414689463,-0.02048274479500084,-0.07074722780154216,
-0.003948909925206088,-0.05424732651876649,0.007450685323334408,0.032235320614848566,-0.020161417729282864,-0.01850552357184172,1.987006382983588E-4,-0.008875959941321876,0.02613796171469252,0.02752246268617628,-0.01747773804198871,-0.02739453346704994,-0.10717591213014027,0.006802626854511488,-0.05021436000544493,-0.008728057318245627,-0.016313230274337114,-0.017616790836996327,0.04062408100411859,-0.022965963380369478,-0.005088353905005138,-6.325528654012732E-4,-0.01452304578788926,-0.0060842676407344455,0.06324411363011624,0.03444595512462131,-0.018296798121803605,0.028853845571890385,-0.027235146006153562,-0.02004777254868087,-0.02402216467081068,-0.01196690239475077,-0.03372017465142951,0.011573461926010383,0.033704763492266726,0.09737152112522385,0.12114069024022595,-0.04013338349130979,0.03738854657479878,0.020041132012835763,-0.05909303368936403,-0.02539854232237783,-0.04048132120709999,-0.06296536880403934,-0.012938727015773074,-0.004486439601867287,-0.05342341156583372,-0.009611987279262423,-0.008624701229994,-0.037308096938038646,-0.06711896167983687,0.023729584615391052,-0.004672489471948157,-0.04518471251039924,-0.015043202620821247,-0.03259430250851257,-0.0028704569020279263,0.017887485213809253,7.23001901136204E-4,-0.05956036801444836,-0.04038074892727801,0.051361947526203044,-0.050125847256858036,-0.0032596639582638497,0.06098385929053776,0.0327424926556406,-0.05373766524868974,-0.027262712545398606,0.015854845211423926,-0.05537706438278426,0.03380337420461137,0.06939785909698094,0.0012638990669364331,-0.058664721231857425,0.0365828283424192,0.03234227084350814,0.0471837831727622,0.030184908974205973,0.01814385034745106,-0.10310196411262154,0.009869140525623722,-0.003608187198005631,-0.013997577005772938,-0.0303923390822693,0.004447255643020411,-0.12114173435792226,0.02188589308659833,-0.03886258799253494,-0.0025176359606888486,0.05279730058684147,0.05970640962269233,0.036580704997410306,5.081801576789514E-4,0.06324295385192666,0.15197076781410296,0.010250397370183125,0.031201152130909834,0.04114307230345215,-0.017326003971239703,3.5830587035246984E-4,0.037511414209839174,-0.007001007151805606,0.010941283474787025,-0.044166408979590475,-0.06206698928996786,-0.08962870848779148,0.035044755793693365,-0.04472502774239104,0.018344025241018785,0.02426554129085824,-0.06287269227467847,-0.03236910180019271,-0.039805513275546815,0.06678416692587061,0.0669222701636629,0.0506013427295742,0.018923854366666285,-0.0586326558364966,-0.015683627833711807,0.06267184562971957,-0.029186244014244186,0.02115625636755996,-0.03167751258207808,-0.03701558459318913,0.03382680802657647,-0.08466247936048799,-0.02031791686373037,-0.06469081237745328,
